tree
version=v4
num_class=1
num_tree_per_iteration=1
label_index=0
max_feature_idx=2047
objective=binary sigmoid:1
feature_names=Column_0 Column_1 Column_2 Column_3 Column_4 Column_5 Column_6 Column_7 Column_8 Column_9 Column_10 Column_11 Column_12 Column_13 Column_14 Column_15 Column_16 Column_17 Column_18 Column_19 Column_20 Column_21 Column_22 Column_23 Column_24 Column_25 Column_26 Column_27 Column_28 Column_29 Column_30 Column_31 Column_32 Column_33 Column_34 Column_35 Column_36 Column_37 Column_38 Column_39 Column_40 Column_41 Column_42 Column_43 Column_44 Column_45 Column_46 Column_47 Column_48 Column_49 Column_50 Column_51 Column_52 Column_53 Column_54 Column_55 Column_56 Column_57 Column_58 Column_59 Column_60 Column_61 Column_62 Column_63 Column_64 Column_65 Column_66 Column_67 Column_68 Column_69 Column_70 Column_71 Column_72 Column_73 Column_74 Column_75 Column_76 Column_77 Column_78 Column_79 Column_80 Column_81 Column_82 Column_83 Column_84 Column_85 Column_86 Column_87 Column_88 Column_89 Column_90 Column_91 Column_92 Column_93 Column_94 Column_95 Column_96 Column_97 Column_98 Column_99 Column_100 Column_101 Column_102 Column_103 Column_104 Column_105 Column_106 Column_107 Column_108 Column_109 Column_110 Column_111 Column_112 Column_113 Column_114 Column_115 Column_116 Column_117 Column_118 Column_119 Column_120 Column_121 Column_122 Column_123 Column_124 Column_125 Column_126 Column_127 Column_128 Column_129 Column_130 Column_131 Column_132 Column_133 Column_134 Column_135 Column_136 Column_137 Column_138 Column_139 Column_140 Column_141 Column_142 Column_143 Column_144 Column_145 Column_146 Column_147 Column_148 Column_149 Column_150 Column_151 Column_152 Column_153 Column_154 Column_155 Column_156 Column_157 Column_158 Column_159 Column_160 Column_161 Column_162 Column_163 Column_164 Column_165 Column_166 Column_167 Column_168 Column_169 Column_170 Column_171 Column_172 Column_173 Column_174 Column_175 Column_176 Column_177 Column_178 Column_179 Column_180 Column_181 Column_182 Column_183 Column_184 Column_185 Column_186 Column_187 Column_188 Column_189 Column_190 Column_191 Column_192 Column_193 Column_194 Column_195 Column_196 Column_197 Column_198 Column_199 Column_200 Column_201 Column_202 Column_203 Column_204 Column_205 Column_206 Column_207 Column_208 Column_209 Column_210 Column_211 Column_212 Column_213 Column_214 Column_215 Column_216 Column_217 Column_218 Column_219 Column_220 Column_221 Column_222 Column_223 Column_224 Column_225 Column_226 Column_227 Column_228 Column_229 Column_230 Column_231 Column_232 Column_233 Column_234 Column_235 Column_236 Column_237 Column_238 Column_239 Column_240 Column_241 Column_242 Column_243 Column_244 Column_245 Column_246 Column_247 Column_248 Column_249 Column_250 Column_251 Column_252 Column_253 Column_254 Column_255 Column_256 Column_257 Column_258 Column_259 Column_260 Column_261 Column_262 Column_263 Column_264 Column_265 Column_266 Column_267 Column_268 Column_269 Column_270 Column_271 Column_272 Column_273 Column_274 Column_275 Column_276 Column_277 Column_278 Column_279 Column_280 Column_281 Column_282 Column_283 Column_284 Column_285 Column_286 Column_287 Column_288 Column_289 Column_290 Column_291 Column_292 Column_293 Column_294 Column_295 Column_296 Column_297 Column_298 Column_299 Column_300 Column_301 Column_302 Column_303 Column_304 Column_305 Column_306 Column_307 Column_308 Column_309 Column_310 Column_311 Column_312 Column_313 Column_314 Column_315 Column_316 Column_317 Column_318 Column_319 Column_320 Column_321 Column_322 Column_323 Column_324 Column_325 Column_326 Column_327 Column_328 Column_329 Column_330 Column_331 Column_332 Column_333 Column_334 Column_335 Column_336 Column_337 Column_338 Column_339 Column_340 Column_341 Column_342 Column_343 Column_344 Column_345 Column_346 Column_347 Column_348 Column_349 Column_350 Column_351 Column_352 Column_353 Column_354 Column_355 Column_356 Column_357 Column_358 Column_359 Column_360 Column_361 Column_362 Column_363 Column_364 Column_365 Column_366 Column_367 Column_368 Column_369 Column_370 Column_371 Column_372 Column_373 Column_374 Column_375 Column_376 Column_377 Column_378 Column_379 Column_380 Column_381 Column_382 Column_383 Column_384 Column_385 Column_386 Column_387 Column_388 Column_389 Column_390 Column_391 Column_392 Column_393 Column_394 Column_395 Column_396 Column_397 Column_398 Column_399 Column_400 Column_401 Column_402 Column_403 Column_404 Column_405 Column_406 Column_407 Column_408 Column_409 Column_410 Column_411 Column_412 Column_413 Column_414 Column_415 Column_416 Column_417 Column_418 Column_419 Column_420 Column_421 Column_422 Column_423 Column_424 Column_425 Column_426 Column_427 Column_428 Column_429 Column_430 Column_431 Column_432 Column_433 Column_434 Column_435 Column_436 Column_437 Column_438 Column_439 Column_440 Column_441 Column_442 Column_443 Column_444 Column_445 Column_446 Column_447 Column_448 Column_449 Column_450 Column_451 Column_452 Column_453 Column_454 Column_455 Column_456 Column_457 Column_458 Column_459 Column_460 Column_461 Column_462 Column_463 Column_464 Column_465 Column_466 Column_467 Column_468 Column_469 Column_470 Column_471 Column_472 Column_473 Column_474 Column_475 Column_476 Column_477 Column_478 Column_479 Column_480 Column_481 Column_482 Column_483 Column_484 Column_485 Column_486 Column_487 Column_488 Column_489 Column_490 Column_491 Column_492 Column_493 Column_494 Column_495 Column_496 Column_497 Column_498 Column_499 Column_500 Column_501 Column_502 Column_503 Column_504 Column_505 Column_506 Column_507 Column_508 Column_509 Column_510 Column_511 Column_512 Column_513 Column_514 Column_515 Column_516 Column_517 Column_518 Column_519 Column_520 Column_521 Column_522 Column_523 Column_524 Column_525 Column_526 Column_527 Column_528 Column_529 Column_530 Column_531 Column_532 Column_533 Column_534 Column_535 Column_536 Column_537 Column_538 Column_539 Column_540 Column_541 Column_542 Column_543 Column_544 Column_545 Column_546 Column_547 Column_548 Column_549 Column_550 Column_551 Column_552 Column_553 Column_554 Column_555 Column_556 Column_557 Column_558 Column_559 Column_560 Column_561 Column_562 Column_563 Column_564 Column_565 Column_566 Column_567 Column_568 Column_569 Column_570 Column_571 Column_572 Column_573 Column_574 Column_575 Column_576 Column_577 Column_578 Column_579 Column_580 Column_581 Column_582 Column_583 Column_584 Column_585 Column_586 Column_587 Column_588 Column_589 Column_590 Column_591 Column_592 Column_593 Column_594 Column_595 Column_596 Column_597 Column_598 Column_599 Column_600 Column_601 Column_602 Column_603 Column_604 Column_605 Column_606 Column_607 Column_608 Column_609 Column_610 Column_611 Column_612 Column_613 Column_614 Column_615 Column_616 Column_617 Column_618 Column_619 Column_620 Column_621 Column_622 Column_623 Column_624 Column_625 Column_626 Column_627 Column_628 Column_629 Column_630 Column_631 Column_632 Column_633 Column_634 Column_635 Column_636 Column_637 Column_638 Column_639 Column_640 Column_641 Column_642 Column_643 Column_644 Column_645 Column_646 Column_647 Column_648 Column_649 Column_650 Column_651 Column_652 Column_653 Column_654 Column_655 Column_656 Column_657 Column_658 Column_659 Column_660 Column_661 Column_662 Column_663 Column_664 Column_665 Column_666 Column_667 Column_668 Column_669 Column_670 Column_671 Column_672 Column_673 Column_674 Column_675 Column_676 Column_677 Column_678 Column_679 Column_680 Column_681 Column_682 Column_683 Column_684 Column_685 Column_686 Column_687 Column_688 Column_689 Column_690 Column_691 Column_692 Column_693 Column_694 Column_695 Column_696 Column_697 Column_698 Column_699 Column_700 Column_701 Column_702 Column_703 Column_704 Column_705 Column_706 Column_707 Column_708 Column_709 Column_710 Column_711 Column_712 Column_713 Column_714 Column_715 Column_716 Column_717 Column_718 Column_719 Column_720 Column_721 Column_722 Column_723 Column_724 Column_725 Column_726 Column_727 Column_728 Column_729 Column_730 Column_731 Column_732 Column_733 Column_734 Column_735 Column_736 Column_737 Column_738 Column_739 Column_740 Column_741 Column_742 Column_743 Column_744 Column_745 Column_746 Column_747 Column_748 Column_749 Column_750 Column_751 Column_752 Column_753 Column_754 Column_755 Column_756 Column_757 Column_758 Column_759 Column_760 Column_761 Column_762 Column_763 Column_764 Column_765 Column_766 Column_767 Column_768 Column_769 Column_770 Column_771 Column_772 Column_773 Column_774 Column_775 Column_776 Column_777 Column_778 Column_779 Column_780 Column_781 Column_782 Column_783 Column_784 Column_785 Column_786 Column_787 Column_788 Column_789 Column_790 Column_791 Column_792 Column_793 Column_794 Column_795 Column_796 Column_797 Column_798 Column_799 Column_800 Column_801 Column_802 Column_803 Column_804 Column_805 Column_806 Column_807 Column_808 Column_809 Column_810 Column_811 Column_812 Column_813 Column_814 Column_815 Column_816 Column_817 Column_818 Column_819 Column_820 Column_821 Column_822 Column_823 Column_824 Column_825 Column_826 Column_827 Column_828 Column_829 Column_830 Column_831 Column_832 Column_833 Column_834 Column_835 Column_836 Column_837 Column_838 Column_839 Column_840 Column_841 Column_842 Column_843 Column_844 Column_845 Column_846 Column_847 Column_848 Column_849 Column_850 Column_851 Column_852 Column_853 Column_854 Column_855 Column_856 Column_857 Column_858 Column_859 Column_860 Column_861 Column_862 Column_863 Column_864 Column_865 Column_866 Column_867 Column_868 Column_869 Column_870 Column_871 Column_872 Column_873 Column_874 Column_875 Column_876 Column_877 Column_878 Column_879 Column_880 Column_881 Column_882 Column_883 Column_884 Column_885 Column_886 Column_887 Column_888 Column_889 Column_890 Column_891 Column_892 Column_893 Column_894 Column_895 Column_896 Column_897 Column_898 Column_899 Column_900 Column_901 Column_902 Column_903 Column_904 Column_905 Column_906 Column_907 Column_908 Column_909 Column_910 Column_911 Column_912 Column_913 Column_914 Column_915 Column_916 Column_917 Column_918 Column_919 Column_920 Column_921 Column_922 Column_923 Column_924 Column_925 Column_926 Column_927 Column_928 Column_929 Column_930 Column_931 Column_932 Column_933 Column_934 Column_935 Column_936 Column_937 Column_938 Column_939 Column_940 Column_941 Column_942 Column_943 Column_944 Column_945 Column_946 Column_947 Column_948 Column_949 Column_950 Column_951 Column_952 Column_953 Column_954 Column_955 Column_956 Column_957 Column_958 Column_959 Column_960 Column_961 Column_962 Column_963 Column_964 Column_965 Column_966 Column_967 Column_968 Column_969 Column_970 Column_971 Column_972 Column_973 Column_974 Column_975 Column_976 Column_977 Column_978 Column_979 Column_980 Column_981 Column_982 Column_983 Column_984 Column_985 Column_986 Column_987 Column_988 Column_989 Column_990 Column_991 Column_992 Column_993 Column_994 Column_995 Column_996 Column_997 Column_998 Column_999 Column_1000 Column_1001 Column_1002 Column_1003 Column_1004 Column_1005 Column_1006 Column_1007 Column_1008 Column_1009 Column_1010 Column_1011 Column_1012 Column_1013 Column_1014 Column_1015 Column_1016 Column_1017 Column_1018 Column_1019 Column_1020 Column_1021 Column_1022 Column_1023 Column_1024 Column_1025 Column_1026 Column_1027 Column_1028 Column_1029 Column_1030 Column_1031 Column_1032 Column_1033 Column_1034 Column_1035 Column_1036 Column_1037 Column_1038 Column_1039 Column_1040 Column_1041 Column_1042 Column_1043 Column_1044 Column_1045 Column_1046 Column_1047 Column_1048 Column_1049 Column_1050 Column_1051 Column_1052 Column_1053 Column_1054 Column_1055 Column_1056 Column_1057 Column_1058 Column_1059 Column_1060 Column_1061 Column_1062 Column_1063 Column_1064 Column_1065 Column_1066 Column_1067 Column_1068 Column_1069 Column_1070 Column_1071 Column_1072 Column_1073 Column_1074 Column_1075 Column_1076 Column_1077 Column_1078 Column_1079 Column_1080 Column_1081 Column_1082 Column_1083 Column_1084 Column_1085 Column_1086 Column_1087 Column_1088 Column_1089 Column_1090 Column_1091 Column_1092 Column_1093 Column_1094 Column_1095 Column_1096 Column_1097 Column_1098 Column_1099 Column_1100 Column_1101 Column_1102 Column_1103 Column_1104 Column_1105 Column_1106 Column_1107 Column_1108 Column_1109 Column_1110 Column_1111 Column_1112 Column_1113 Column_1114 Column_1115 Column_1116 Column_1117 Column_1118 Column_1119 Column_1120 Column_1121 Column_1122 Column_1123 Column_1124 Column_1125 Column_1126 Column_1127 Column_1128 Column_1129 Column_1130 Column_1131 Column_1132 Column_1133 Column_1134 Column_1135 Column_1136 Column_1137 Column_1138 Column_1139 Column_1140 Column_1141 Column_1142 Column_1143 Column_1144 Column_1145 Column_1146 Column_1147 Column_1148 Column_1149 Column_1150 Column_1151 Column_1152 Column_1153 Column_1154 Column_1155 Column_1156 Column_1157 Column_1158 Column_1159 Column_1160 Column_1161 Column_1162 Column_1163 Column_1164 Column_1165 Column_1166 Column_1167 Column_1168 Column_1169 Column_1170 Column_1171 Column_1172 Column_1173 Column_1174 Column_1175 Column_1176 Column_1177 Column_1178 Column_1179 Column_1180 Column_1181 Column_1182 Column_1183 Column_1184 Column_1185 Column_1186 Column_1187 Column_1188 Column_1189 Column_1190 Column_1191 Column_1192 Column_1193 Column_1194 Column_1195 Column_1196 Column_1197 Column_1198 Column_1199 Column_1200 Column_1201 Column_1202 Column_1203 Column_1204 Column_1205 Column_1206 Column_1207 Column_1208 Column_1209 Column_1210 Column_1211 Column_1212 Column_1213 Column_1214 Column_1215 Column_1216 Column_1217 Column_1218 Column_1219 Column_1220 Column_1221 Column_1222 Column_1223 Column_1224 Column_1225 Column_1226 Column_1227 Column_1228 Column_1229 Column_1230 Column_1231 Column_1232 Column_1233 Column_1234 Column_1235 Column_1236 Column_1237 Column_1238 Column_1239 Column_1240 Column_1241 Column_1242 Column_1243 Column_1244 Column_1245 Column_1246 Column_1247 Column_1248 Column_1249 Column_1250 Column_1251 Column_1252 Column_1253 Column_1254 Column_1255 Column_1256 Column_1257 Column_1258 Column_1259 Column_1260 Column_1261 Column_1262 Column_1263 Column_1264 Column_1265 Column_1266 Column_1267 Column_1268 Column_1269 Column_1270 Column_1271 Column_1272 Column_1273 Column_1274 Column_1275 Column_1276 Column_1277 Column_1278 Column_1279 Column_1280 Column_1281 Column_1282 Column_1283 Column_1284 Column_1285 Column_1286 Column_1287 Column_1288 Column_1289 Column_1290 Column_1291 Column_1292 Column_1293 Column_1294 Column_1295 Column_1296 Column_1297 Column_1298 Column_1299 Column_1300 Column_1301 Column_1302 Column_1303 Column_1304 Column_1305 Column_1306 Column_1307 Column_1308 Column_1309 Column_1310 Column_1311 Column_1312 Column_1313 Column_1314 Column_1315 Column_1316 Column_1317 Column_1318 Column_1319 Column_1320 Column_1321 Column_1322 Column_1323 Column_1324 Column_1325 Column_1326 Column_1327 Column_1328 Column_1329 Column_1330 Column_1331 Column_1332 Column_1333 Column_1334 Column_1335 Column_1336 Column_1337 Column_1338 Column_1339 Column_1340 Column_1341 Column_1342 Column_1343 Column_1344 Column_1345 Column_1346 Column_1347 Column_1348 Column_1349 Column_1350 Column_1351 Column_1352 Column_1353 Column_1354 Column_1355 Column_1356 Column_1357 Column_1358 Column_1359 Column_1360 Column_1361 Column_1362 Column_1363 Column_1364 Column_1365 Column_1366 Column_1367 Column_1368 Column_1369 Column_1370 Column_1371 Column_1372 Column_1373 Column_1374 Column_1375 Column_1376 Column_1377 Column_1378 Column_1379 Column_1380 Column_1381 Column_1382 Column_1383 Column_1384 Column_1385 Column_1386 Column_1387 Column_1388 Column_1389 Column_1390 Column_1391 Column_1392 Column_1393 Column_1394 Column_1395 Column_1396 Column_1397 Column_1398 Column_1399 Column_1400 Column_1401 Column_1402 Column_1403 Column_1404 Column_1405 Column_1406 Column_1407 Column_1408 Column_1409 Column_1410 Column_1411 Column_1412 Column_1413 Column_1414 Column_1415 Column_1416 Column_1417 Column_1418 Column_1419 Column_1420 Column_1421 Column_1422 Column_1423 Column_1424 Column_1425 Column_1426 Column_1427 Column_1428 Column_1429 Column_1430 Column_1431 Column_1432 Column_1433 Column_1434 Column_1435 Column_1436 Column_1437 Column_1438 Column_1439 Column_1440 Column_1441 Column_1442 Column_1443 Column_1444 Column_1445 Column_1446 Column_1447 Column_1448 Column_1449 Column_1450 Column_1451 Column_1452 Column_1453 Column_1454 Column_1455 Column_1456 Column_1457 Column_1458 Column_1459 Column_1460 Column_1461 Column_1462 Column_1463 Column_1464 Column_1465 Column_1466 Column_1467 Column_1468 Column_1469 Column_1470 Column_1471 Column_1472 Column_1473 Column_1474 Column_1475 Column_1476 Column_1477 Column_1478 Column_1479 Column_1480 Column_1481 Column_1482 Column_1483 Column_1484 Column_1485 Column_1486 Column_1487 Column_1488 Column_1489 Column_1490 Column_1491 Column_1492 Column_1493 Column_1494 Column_1495 Column_1496 Column_1497 Column_1498 Column_1499 Column_1500 Column_1501 Column_1502 Column_1503 Column_1504 Column_1505 Column_1506 Column_1507 Column_1508 Column_1509 Column_1510 Column_1511 Column_1512 Column_1513 Column_1514 Column_1515 Column_1516 Column_1517 Column_1518 Column_1519 Column_1520 Column_1521 Column_1522 Column_1523 Column_1524 Column_1525 Column_1526 Column_1527 Column_1528 Column_1529 Column_1530 Column_1531 Column_1532 Column_1533 Column_1534 Column_1535 Column_1536 Column_1537 Column_1538 Column_1539 Column_1540 Column_1541 Column_1542 Column_1543 Column_1544 Column_1545 Column_1546 Column_1547 Column_1548 Column_1549 Column_1550 Column_1551 Column_1552 Column_1553 Column_1554 Column_1555 Column_1556 Column_1557 Column_1558 Column_1559 Column_1560 Column_1561 Column_1562 Column_1563 Column_1564 Column_1565 Column_1566 Column_1567 Column_1568 Column_1569 Column_1570 Column_1571 Column_1572 Column_1573 Column_1574 Column_1575 Column_1576 Column_1577 Column_1578 Column_1579 Column_1580 Column_1581 Column_1582 Column_1583 Column_1584 Column_1585 Column_1586 Column_1587 Column_1588 Column_1589 Column_1590 Column_1591 Column_1592 Column_1593 Column_1594 Column_1595 Column_1596 Column_1597 Column_1598 Column_1599 Column_1600 Column_1601 Column_1602 Column_1603 Column_1604 Column_1605 Column_1606 Column_1607 Column_1608 Column_1609 Column_1610 Column_1611 Column_1612 Column_1613 Column_1614 Column_1615 Column_1616 Column_1617 Column_1618 Column_1619 Column_1620 Column_1621 Column_1622 Column_1623 Column_1624 Column_1625 Column_1626 Column_1627 Column_1628 Column_1629 Column_1630 Column_1631 Column_1632 Column_1633 Column_1634 Column_1635 Column_1636 Column_1637 Column_1638 Column_1639 Column_1640 Column_1641 Column_1642 Column_1643 Column_1644 Column_1645 Column_1646 Column_1647 Column_1648 Column_1649 Column_1650 Column_1651 Column_1652 Column_1653 Column_1654 Column_1655 Column_1656 Column_1657 Column_1658 Column_1659 Column_1660 Column_1661 Column_1662 Column_1663 Column_1664 Column_1665 Column_1666 Column_1667 Column_1668 Column_1669 Column_1670 Column_1671 Column_1672 Column_1673 Column_1674 Column_1675 Column_1676 Column_1677 Column_1678 Column_1679 Column_1680 Column_1681 Column_1682 Column_1683 Column_1684 Column_1685 Column_1686 Column_1687 Column_1688 Column_1689 Column_1690 Column_1691 Column_1692 Column_1693 Column_1694 Column_1695 Column_1696 Column_1697 Column_1698 Column_1699 Column_1700 Column_1701 Column_1702 Column_1703 Column_1704 Column_1705 Column_1706 Column_1707 Column_1708 Column_1709 Column_1710 Column_1711 Column_1712 Column_1713 Column_1714 Column_1715 Column_1716 Column_1717 Column_1718 Column_1719 Column_1720 Column_1721 Column_1722 Column_1723 Column_1724 Column_1725 Column_1726 Column_1727 Column_1728 Column_1729 Column_1730 Column_1731 Column_1732 Column_1733 Column_1734 Column_1735 Column_1736 Column_1737 Column_1738 Column_1739 Column_1740 Column_1741 Column_1742 Column_1743 Column_1744 Column_1745 Column_1746 Column_1747 Column_1748 Column_1749 Column_1750 Column_1751 Column_1752 Column_1753 Column_1754 Column_1755 Column_1756 Column_1757 Column_1758 Column_1759 Column_1760 Column_1761 Column_1762 Column_1763 Column_1764 Column_1765 Column_1766 Column_1767 Column_1768 Column_1769 Column_1770 Column_1771 Column_1772 Column_1773 Column_1774 Column_1775 Column_1776 Column_1777 Column_1778 Column_1779 Column_1780 Column_1781 Column_1782 Column_1783 Column_1784 Column_1785 Column_1786 Column_1787 Column_1788 Column_1789 Column_1790 Column_1791 Column_1792 Column_1793 Column_1794 Column_1795 Column_1796 Column_1797 Column_1798 Column_1799 Column_1800 Column_1801 Column_1802 Column_1803 Column_1804 Column_1805 Column_1806 Column_1807 Column_1808 Column_1809 Column_1810 Column_1811 Column_1812 Column_1813 Column_1814 Column_1815 Column_1816 Column_1817 Column_1818 Column_1819 Column_1820 Column_1821 Column_1822 Column_1823 Column_1824 Column_1825 Column_1826 Column_1827 Column_1828 Column_1829 Column_1830 Column_1831 Column_1832 Column_1833 Column_1834 Column_1835 Column_1836 Column_1837 Column_1838 Column_1839 Column_1840 Column_1841 Column_1842 Column_1843 Column_1844 Column_1845 Column_1846 Column_1847 Column_1848 Column_1849 Column_1850 Column_1851 Column_1852 Column_1853 Column_1854 Column_1855 Column_1856 Column_1857 Column_1858 Column_1859 Column_1860 Column_1861 Column_1862 Column_1863 Column_1864 Column_1865 Column_1866 Column_1867 Column_1868 Column_1869 Column_1870 Column_1871 Column_1872 Column_1873 Column_1874 Column_1875 Column_1876 Column_1877 Column_1878 Column_1879 Column_1880 Column_1881 Column_1882 Column_1883 Column_1884 Column_1885 Column_1886 Column_1887 Column_1888 Column_1889 Column_1890 Column_1891 Column_1892 Column_1893 Column_1894 Column_1895 Column_1896 Column_1897 Column_1898 Column_1899 Column_1900 Column_1901 Column_1902 Column_1903 Column_1904 Column_1905 Column_1906 Column_1907 Column_1908 Column_1909 Column_1910 Column_1911 Column_1912 Column_1913 Column_1914 Column_1915 Column_1916 Column_1917 Column_1918 Column_1919 Column_1920 Column_1921 Column_1922 Column_1923 Column_1924 Column_1925 Column_1926 Column_1927 Column_1928 Column_1929 Column_1930 Column_1931 Column_1932 Column_1933 Column_1934 Column_1935 Column_1936 Column_1937 Column_1938 Column_1939 Column_1940 Column_1941 Column_1942 Column_1943 Column_1944 Column_1945 Column_1946 Column_1947 Column_1948 Column_1949 Column_1950 Column_1951 Column_1952 Column_1953 Column_1954 Column_1955 Column_1956 Column_1957 Column_1958 Column_1959 Column_1960 Column_1961 Column_1962 Column_1963 Column_1964 Column_1965 Column_1966 Column_1967 Column_1968 Column_1969 Column_1970 Column_1971 Column_1972 Column_1973 Column_1974 Column_1975 Column_1976 Column_1977 Column_1978 Column_1979 Column_1980 Column_1981 Column_1982 Column_1983 Column_1984 Column_1985 Column_1986 Column_1987 Column_1988 Column_1989 Column_1990 Column_1991 Column_1992 Column_1993 Column_1994 Column_1995 Column_1996 Column_1997 Column_1998 Column_1999 Column_2000 Column_2001 Column_2002 Column_2003 Column_2004 Column_2005 Column_2006 Column_2007 Column_2008 Column_2009 Column_2010 Column_2011 Column_2012 Column_2013 Column_2014 Column_2015 Column_2016 Column_2017 Column_2018 Column_2019 Column_2020 Column_2021 Column_2022 Column_2023 Column_2024 Column_2025 Column_2026 Column_2027 Column_2028 Column_2029 Column_2030 Column_2031 Column_2032 Column_2033 Column_2034 Column_2035 Column_2036 Column_2037 Column_2038 Column_2039 Column_2040 Column_2041 Column_2042 Column_2043 Column_2044 Column_2045 Column_2046 Column_2047
feature_infos=none [0:1] none none none [0:1] none none none none none none none [0:1] [0:1] none none none none none [0:1] none none none none [0:1] none none none none none [0:1] [0:1] none none none none none none none none [0:1] none [0:1] none [0:1] none none none none none [0:1] none none none none none none [0:1] none none none none none none none none [0:1] none none none none none none [0:1] none none none none none [0:1] none none none none none none [0:1] none none [0:1] none [0:1] none [0:1] [0:1] none none none none none none [0:1] [0:1] [0:1] none none none none [0:1] none none none none [0:1] none [0:1] none none [0:1] none none [0:1] none none [0:1] [0:1] none none [0:1] none none none none none none none none none none [0:1] none none none none [0:1] none [0:1] none none none none none none none [0:1] none none [0:1] none [0:1] none [0:1] none none none none none [0:1] [0:1] none [0:1] none none none none [0:1] none none none none none none [0:1] [0:1] none none none none none none [0:1] [0:1] [0:1] [0:1] none none [0:1] none none none none [0:1] [0:1] [0:1] none none [0:1] none none none none none [0:1] none none [0:1] none none none none none [0:1] none none none none none none none [0:1] [0:1] none [0:1] none [0:1] none none none [0:1] [0:1] none none none none none [0:1] none [0:1] [0:1] none none none none none [0:1] none none none none none none none none none [0:1] none [0:1] none none none none none none none none none none none none none none none [0:1] none [0:1] none [0:1] none [0:1] none none none none [0:1] none none none none none none [0:1] none none none [0:1] none none none none [0:1] none none none [0:1] none none none [0:1] none none none [0:1] [0:1] none [0:1] none [0:1] [0:1] [0:1] none [0:1] none none none none none none [0:1] none none none none none none [0:1] none [0:1] none none [0:1] none [0:1] [0:1] none none none none none none none none none none none none [0:1] none none none none none none none none none [0:1] none [0:1] [0:1] none none none [0:1] none none none none none [0:1] none none [0:1] none none [0:1] none none none [0:1] none [0:1] none none none none none [0:1] none [0:1] none [0:1] [0:1] none none none none none none [0:1] none none none none none none none [0:1] none none [0:1] [0:1] none none none none none none none none none [0:1] none none none none none none [0:1] none none none none none none none none none [0:1] none none none none none [0:1] none none none none none [0:1] none none [0:1] none none none none none [0:1] none none none none none none [0:1] [0:1] none [0:1] [0:1] [0:1] none none none none none none none none none none none none [0:1] none none none none none none none none none none none none none none none none none [0:1] [0:1] none [0:1] none [0:1] none none [0:1] none none none none none none none none none none [0:1] none none [0:1] none [0:1] none none none none none [0:1] none none none [0:1] none none none none [0:1] [0:1] none [0:1] none none none none [0:1] none none none none none [0:1] none none none [0:1] none none none none none none none none none none none none none none none none none none none [0:1] [0:1] [0:1] none none none [0:1] none none none [0:1] none none none [0:1] [0:1] none [0:1] none none none none none none none none none none none none [0:1] none none [0:1] none none none none none none none [0:1] none none none none none none [0:1] none [0:1] [0:1] none [0:1] none none none [0:1] none none none none [0:1] none [0:1] [0:1] none [0:1] [0:1] none none none none [0:1] [0:1] [0:1] [0:1] none none none none none none none none none none none [0:1] [0:1] none none none [0:1] [0:1] [0:1] [0:1] none none none [0:1] [0:1] none none [0:1] none none none none [0:1] none [0:1] [0:1] none [0:1] [0:1] [0:1] [0:1] none [0:1] none none [0:1] none none none [0:1] none none none [0:1] none none [0:1] none none none [0:1] none none [0:1] none none none none [0:1] [0:1] none [0:1] none none [0:1] none none [0:1] none none none none [0:1] none none none none none none none none none none none none none none [0:1] none [0:1] none none none none none [0:1] none none [0:1] [0:1] none [0:1] none none [0:1] none none none [0:1] [0:1] none none none none [0:1] none [0:1] none none none [0:1] [0:1] none [0:1] none [0:1] none [0:1] none none none none [0:1] [0:1] none none none [0:1] [0:1] none none none none none none none none [0:1] [0:1] [0:1] none none [0:1] none none [0:1] none [0:1] none [0:1] none [0:1] none none none none none none none [0:1] none none [0:1] none none none [0:1] none none none none none none none none none none none [0:1] [0:1] none none [0:1] none none [0:1] none none none [0:1] [0:1] none [0:1] none none none none none none none [0:1] none [0:1] none none none none none none none [0:1] none [0:1] none none none none none none [0:1] none none none none none none [0:1] none none [0:1] [0:1] [0:1] none none [0:1] none none none none [0:1] none [0:1] none none none none none none [0:1] none [0:1] none none none [0:1] none none none none none none none none none none [0:1] none none none [0:1] none none none none none none none none [0:1] none none none none none [0:1] none none none [0:1] none none [0:1] none none none none none [0:1] none [0:1] none none none none none none none none none [0:1] [0:1] none none [0:1] none [0:1] none [0:1] [0:1] none none [0:1] none [0:1] none none none none none [0:1] [0:1] [0:1] [0:1] none none none [0:1] none [0:1] none none none none [0:1] [0:1] none none [0:1] none [0:1] none none none none none none none none none none none [0:1] none none [0:1] none none [0:1] none none [0:1] none [0:1] none [0:1] none none [0:1] none none none [0:1] none none none [0:1] none none none none none [0:1] [0:1] none none none none none none none [0:1] [0:1] none none [0:1] [0:1] none none [0:1] none none none none none none none none none [0:1] none none none none none [0:1] [0:1] none [0:1] none none none none [0:1] none none none none none [0:1] none [0:1] [0:1] none [0:1] none [0:1] none none none [0:1] none none none none [0:1] none [0:1] none [0:1] none none none [0:1] none [0:1] none [0:1] [0:1] [0:1] [0:1] none none [0:1] none none [0:1] none none none none none none none [0:1] none none none none none none none none none none none none none none none [0:1] none none none [0:1] none none none [0:1] [0:1] [0:1] none none none none [0:1] none none none none none none none none none none [0:1] [0:1] none [0:1] none [0:1] none none none none none none none none none [0:1] none [0:1] none none none [0:1] [0:1] [0:1] [0:1] none [0:1] none [0:1] [0:1] none none none none [0:1] none none none none [0:1] none none none none none none none none none [0:1] none none none [0:1] none none none none [0:1] none none [0:1] none none none none none none none none [0:1] none none [0:1] [0:1] [0:1] none none [0:1] none none none [0:1] none none none none [0:1] [0:1] none none none [0:1] none none none none none none [0:1] none none none none [0:1] none none none none none none none none none none [0:1] none none none none none none none none none none none none [0:1] none none [0:1] none none none none [0:1] none [0:1] [0:1] none none none none [0:1] [0:1] none none [0:1] [0:1] none none none [0:1] none none none none none none none none none [0:1] [0:1] none [0:1] none none none [0:1] none none none none none none none none [0:1] none none none none [0:1] none none none none [0:1] none none none [0:1] none [0:1] [0:1] none none none none none none none none [0:1] none none none [0:1] none none [0:1] none none [0:1] none none none [0:1] [0:1] none none none [0:1] [0:1] [0:1] none [0:1] none none [0:1] [0:1] none none [0:1] [0:1] none [0:1] none none none none none none none none none none none none none none none none [0:1] none none none [0:1] none [0:1] none none none none [0:1] none none none none none none none none [0:1] none none none none [0:1] none none none none [0:1] none [0:1] none none none none none none none [0:1] none [0:1] none none none none none none none [0:1] none none none none none none none none [0:1] [0:1] none none [0:1] none none [0:1] none none none none none none none none none none none none [0:1] none [0:1] none none none none [0:1] none none none none [0:1] none none none none none [0:1] none none none none none none none none [0:1] none [0:1] [0:1] [0:1] none [0:1] [0:1] none none [0:1] none none none none [0:1] none none [0:1] [0:1] [0:1] [0:1] [0:1] none none [0:1] none none [0:1] none none none none [0:1] none [0:1] none none none none none none none none [0:1] none none none [0:1] none none none [0:1] none none [0:1] none [0:1] none none none none none none none [0:1] [0:1] [0:1] [0:1] none none none none [0:1] none none [0:1] none [0:1] none [0:1] none none [0:1] none none [0:1] none [0:1] [0:1] none none none none none none [0:1] none none [0:1] none [0:1] none none [0:1] none none none none none none none none none [0:1] [0:1] none none none none none none [0:1] none none none none none none none none none none none none none none none none none [0:1] none [0:1] none none none none none none [0:1] none [0:1] [0:1] none none none [0:1] none none [0:1] none none none [0:1] none none none none [0:1] none none none [0:1] [0:1] none none [0:1] none none none [0:1] none none [0:1] none none none none none none none none none none none none [0:1] none none none none [0:1] none none none none [0:1] none none [0:1] none none none none none none [0:1] none none none none [0:1] none none none none [0:1] [0:1] [0:1] none none none none none [0:1] none none none none none none [0:1] none [0:1] none none [0:1] none none none [0:1] none none none none none none [0:1] [0:1] none none none none [0:1] [0:1] none [0:1] [0:1] none none [0:1] [0:1] [0:1] [0:1] none none [0:1] [0:1] none none none none none [0:1] [0:1] none none none none none none none none none none none none [0:1] none none [0:1] [0:1] none none none none none none none none none none none none none [0:1] none none none none none none none [0:1] [0:1] none none none [0:1] [0:1] none none none none none [0:1] none none none none none none none none none [0:1] [0:1] [0:1] [0:1] none none none [0:1] none none [0:1] none [0:1] [0:1] none none none none [0:1] none none none none none [0:1] none [0:1] [0:1] none [0:1] none none none none none [0:1] [0:1] [0:1] none none none none [0:1] [0:1] [0:1] [0:1] none none none none none [0:1] none [0:1] none [0:1] none [0:1] [0:1] none none none none none [0:1] none none none none none none none none none none [0:1] none [0:1] none none none [0:1] [0:1] [0:1] none none none none none none none none [0:1] none [0:1] none none none none none none none none none none none [0:1] [0:1] none none none none none none [0:1] none none none none none none
tree_sizes=2333 2963 2745 3523 3523 3513 3515 3519 3505 3507 3503 3510 3505 3506 3516 3504 3511 3501 3507 3514 3508 3538 3508 3527 3531 3498 3533 3524 3520 3545 3507 3536 3527 3531 3523 3522 3512 3521 3523 3537 3527 3545 3528 3523 3522 3534 3528 3548 3545 3576 3569 3530 3546 3550 3547 3547 3549 3569 3560 3559 3561 3560 3566 3571 3575 3570 3586 3595 3580 3582 3587 3592 3581 3595 3600 3584 3601 3596 3606 3606 3601 3596 3605 3599 3620 3611 3618 3606 3627 3623 3610 3607 3614 3619 3630 3634 3620 3620 3616 3630 3631 3650 3634 3629 3646 3644 3640 3657 3648 3663 3653 3655 3645 3652 3652 3662 3657 3679 3682 3680 3670 3681 3677 3678 3673 3694 3664 3673 3687 3694 3681 3683 3690 3691 3696 3691 3708 3697 3698 3690 3703 3704 3697 3693 3714 3698 3721 3716 3724 3733 3720 3732 3722 3718 3737 3735 3725 3729 3738 3734 3727 3734 3735 3744 3751 3741 3750 3742 3737 3749 3756 3754 3755 3754 3739 3756 3770 3652 3170 3782 3759 3767 3772 3788 3781 3761 3757 3775 3770 3786 3655 3800 3643 3533 3762 3434 3669 3073 3322 3558 3441 3334 3440 3430 3320 2957 3218 3320 3211 2613 3078 2850 2856 2857 2981 2741 2386 2990 2508 2378 2512 2279 2402 2273 2508 1921 2163 2270 2048 2165 2044 2164 1925 2039 1928 2040 1679 1928 1811 1798 2044 1924 1687 1918 1924 1682 1806 1569 1572 1453 1564 1450 1446 1453 1440 1451 1444 1453 1569 1447 1329 1206 1206 1449 1327 1334 1336 1329 1339 1455 1444 1216 1207 1211 1212 1327 1205 1086 1091 1208 1212 1210 977 976 1091 1216 1097 1094 1213 1211 1088 1094 1097 977 1100 974 1100 1093 981 980 971 863 976 979 863 1098 974 979 977 983 856 970 972 973 974 974 981 1096 972 978 980 860 856 856 978 858 979 977 980 853 863 864 859 858 854 856 859 739 974 860 739 855 861 861 855 981 854 861 977 858 859 858 863 860 858 855 736 740 859 740 861 741 859 856 863 851 861 740 975 860 743 740 742 744 742 858 742 859 864 860 868 860 858 859 858 738 743 862 741 859 739 738 735 741 740 744 743 862 860 742 622 623 621 619 621 742 863 744 859 741 742 861 862 738 863 739 740 739 742 738 743 738 741 741 620 740 743 619 739 739 738 738 619 741 736 735 738 744 623 619 738 742 618 738 619 625 744 741 742 860 743 620 742 738 739 743 739 741 741 747 625 626 623 741 621 740 745 743 622 744 742 743 621 622 742 742 741 619 741 618 743 618 742 743 743 620 743 621 624 625 624 744 743 743 744 620 617 619 623 741 738 741 740 741 618 743 740 740 743 624 738 738 739 741 618 623 742 744 743 622 619 621 618 617 621 498 497 621 620 617 623 623 622 623 622 740 622 622 738 620 618 615 620 620 622 622 500 622 502 503 624 621 622 623 623 625 627 622 618 622 497 499 621 500 501 622 618 622 623 621 744 741 738 743 623 742 740 740 624 739 501 501 499 622 499 622 738 741 741 626 619 622 621 620 624 618 617 614 621 624 627 624 621 623 618 625 621 621 625 621 623 620 621 619 625 500 501 498 502 498 623 745 739 620 624 621 620 624 621 622 621 619 620 623 623 622 623 623 622 622 624 623 616 622 619 743 625 624 742 745 622 618 622 619 624 501 502 503 501 500 622 619 622 622 621 622 740 623 624 742 503 747 742 502 622 622 624 619 618 623 498 501 499 499 501 625 620 625 622 619 623 624 620 617 620 616 619 618 620 499 501 621 499 622 502 624 621 622 622 622 620 620 500 499 502 620 502 504 622 623 501 621 502 620 624 624 622 624 503 623 624 623 505 621 627 620 622 621 622 500 624 622 622 622 504 621 621 622 622 501 622 502 501 620 501 616 620 617 618 622 501 500 498 503 501 621 615 622 623 621 621 620 623 504 624 619 620 501 624 624 624 500 502 503 501 623 621 624 623 624 505 625 507 622 506 504 621 503 623 623 617 502 623 617 618 624 619 622 621 622 623 623 621 622 626 624 503 502 502 503 502 623 503 622 624 501 623 498 622 623 620 620 501 504 502 502 503 501 501 502 503 503 502 503 503 503 623 506 624 501 622 622 624 621 621 505 504 504 504 502 503 624 500 499 502 624 620 619 622 622 619 620 620 618 503 497 621 495 497 501 500 499 500 500 498 504 624 623 621 502 623 623 623 621 621 500 498 500 502 500 498 497 500 502 622 503 504 504 499 504 501 502 501 622 505 503 621 624 620 623 497 500 501 499 617 626 618 620 626 622 626 500 501 503 617 503 503 504 501 502 624 621 502 627 626 624 623 618 619 623 500 504 504 504 504 503 503 503 502 503 621 502 502 502 502 501 500 501 500 500 502 499 504 502 503 498 503 622 617 380 501 502 504 504 505 503 500 504 504 503 498 502 500 501 497 502 502 501 502 503 622 504 502 503 501 502 504 504 624 624 503 624 502 503 504 500 503 504 502 624 500 502 502 500 500 504 505 500 505 505 626 619 623 622 625 500 502 501 503 503 503 503 502 501 501 501 501 501 503 503 504 504 501 503 502 504 503 505 504 503 500 504 502 503 501 502 505 501 626 502 502 501 502 502 502 620 622 505 501 627 623 627 504 503 500 624 626 623 506 506 502 505 506 508 625 497 380 381 382 500 503 502 503 503 505 501 500 501 501 504 381 382 383 381 502 503 502 505 502 504 506 623 628 623 626 628 628 506 629 502 503 502 500 504 500 503 501 503 503 623 505 506 505 504 503 500 500 500 502 498 502 502 504 503 503 501 501 501 505 502 500 506 505 505 502 623 627 503 625 624 503 504 504 506 506 501 504 623 503 623 503 504 507 503 504 503 627 504 505 504 506 504 503 624 627 504 504 503 501 505 624 625 625 624 622 503 503 502 504 502 501 503 505 502 505 504 505 504 502 506 501 501 500 502 383 501 501 500 502 499 505 505 505 504 506 501 505 502 504 505 503 500 501 501 500 381 501 380 379 503 502 501 501 502 500 502 505 624 624 505 504 504 504 504 503 500 500 502 503 501 504 621 625 504 505 499 502 498 498 503 504 502 501 503 504 501 500 503 504 502 501 622 502 505 503 501 502 502 502 502 505 503 499 504 504 502 507 507 501 502 624 504 499 503 503 499 499 502 502 501 505 503 622 505 505 505 505 505 505 505 503 503 504 504 503 504 501 500 505 504 503 501 504 504 503 502 503 504 502 504 498 500 502 506 502 503 623 505 619 621 502 503 503 498 504 504 502 504 503 505 383 498 383 500 501 503 505 500 504 504 502 502 504 503 501 503 503 504 502 503 500 503 502 505 502 503 504 501 504 501 496 500 499 499 499 501 500 502 502 502 507 504 505 506 505 500 504 505 503 504 503 502 505 504 503 503 504 504 505 501 503 504 504 502 502 503 503 502 502 501 505 504 500 504 505 503 504 502 382 504 503 384 505 384 503 498 499 503 504 504 504 505 504 504 504 619 503 502 504 503 503 620 503 619 504 505 505 507 502 503 503 504 502 502 500 505 502 506 503 504 503 501 499 504 506 504 503 504 504 505 503 502 504 506 504 503 502 503 504 505 504 506 502 505 504 505 506 504 504 505 503 503 501 503 505 502 504 504 504 504 501 502 502 501 504 501 500 500 500 382 506 503 506 623 506 505 506 503 505 506 502 500 500 500 499 382 501 381 501 383 500 505 501 504 504 501 499 503 505 503 499 502 504 504 503 504 502 505 504 501 502 503 502 504 504 503 380 501 500 503 499 505 506 502 381 500 504 503 383 505 501 500 502 502 504 502 505 504 503 500 498 382 503 505 383 506 502 502 505 503 502 380 503 382 381 502 502 504 503 505 503 503 503 498 504 504 505 504 504 504 502 504 503 503 503 381 503 504 382 503 503 628 500 625 507 499 499 503 501 504 502 502 505 506 505 504 624 502 505 503 381 501 500 501 380 504 504 502 505 505 502 504 503 503 504 503 503 501 499 501 502 504 505 504 504 380 382 504 382 382 502 506 505 503 505 502 505 502 503 503 382 383 383 501 382 502 381 383 381 504 501 502 501 501 504 507 505 508 502 505 504 385 504 383 502 502 500 501 381 382 380 504 379 383 502 505 504 503 506 502 502 502 505 502 503 502 384 382 503 383 503 503 501 503 501 504 501 505 505 503 383 505 505 502 501 503 501 505 505 505 505 503 503 507 502 498 503 503 506 506 504 504 504 497 499 506 502 505 503 503 502 503 503 504 504 503 503 503 502 379 504 504 503 504 503 503 501 503 503 500 503 502 504 502 502 504 503 504 502 502 504 504 500 502 503 503 502 506 504 498 501 505 504 504 504 503 384 504 506 383 383 381 500 383 382 505 505 507 504 501 501 501 502 501 500 507 506 505 504 506 498 500 500 503 502 381 500 500 499 504 384 384 506 383 383 504 504 501 504 505 502 501 504 502 507 502 501 502 507 505 500 499 500 499 499 502 505 503 504 504 501 499 502 500 502 378 380 382 502 381 507 504 505 505 504 504 505 504 502 503 382 381 381 506 504 503 500 502 505 501 501 500 501 503 503 505 506 503 503 506 382 383 502 383 382 505 505 505 507 505 382 504 384 382 505 381 501 381 383 382 383 503 380 382 382 503 505 502 507 503 502 503 382 504 506 383 383 382 501 383 507 508 504 384 505 504 382 383 383 381

Tree=0
num_leaves=21
num_cat=0
split_feature=1164 1535 1816 807 1236 1487 412 699 1722 1097 980 896 1199 1057 807 1236 835 1199 126 525
split_gain=607.768 362.531 230.529 205.89 103.027 46.0987 50.1015 44.2454 40.0706 29.5924 47.3478 25.4711 35.0057 14.559 11.856 7.01447 0.530438 1.43539 2.27374e-13 3.55271e-15
threshold=1.0000000180025095e-35 1.0000000180025095e-35 1.0000000180025095e-35 1.0000000180025095e-35 1.0000000180025095e-35 1.0000000180025095e-35 1.0000000180025095e-35 1.0000000180025095e-35 1.0000000180025095e-35 1.0000000180025095e-35 1.0000000180025095e-35 1.0000000180025095e-35 1.0000000180025095e-35 1.0000000180025095e-35 1.0000000180025095e-35 1.0000000180025095e-35 1.0000000180025095e-35 1.0000000180025095e-35 1.0000000180025095e-35 1.0000000180025095e-35
decision_type=2 2 2 2 2 2 2 2 2 2 2 2 2 2 2 2 2 2 2 2
left_child=1 2 3 8 5 6 11 -4 -1 10 -2 12 14 -9 -3 -11 17 -5 -18 -7
right_child=9 4 7 16 -6 19 -8 13 -10 15 -12 -13 -14 -15 -16 -17 18 -19 -20 -21
leaf_value=1.2921136377896429 1.3188854890347432 1.7540390020125607 1.2804592620600854 1.0643097549656395 1.2416787160404876 1.7540390020125609 1.7540390020125609 1.5304973170197753 1.610352766504771 1.7540390020125609 1.7540390020125609 1.2416787160404876 1.2774531974095977 1.7540390020125609 1.5138084173764255 1.6046343828895964 1.0218275651946027 1.0218275651946025 1.0218275651946027 1.7540390020125609
leaf_weight=8.8794806003570574 4.7128854393959028 3.9606045186519676 5.4131028056144723 14.123565375804899 10.006770193576811 7.1017736196517927 6.6920559108257285 6.880692034959794 7.1364826560020438 37.284311503171921 5.3263302147388458 5.0033850967884055 4.3031677305698386 5.0531850755214682 4.2684586942195892 3.4316687583923331 14.004347324371338 18.205651521682739 15.404782056808472 6.0091930627822876
leaf_count=32 18 29 19 25 32 52 49 38 44 273 39 16 15 37 23 21 20 26 22 44
internal_value=1.4064 1.30053 1.18797 1.11443 1.52663 1.60299 1.52126 1.51759 1.43392 1.70353 1.54976 1.43242 1.50857 1.62515 1.62943 1.74145 1.03155 1.04039 1.02183 1.75404
internal_weight=193.202 142.447 95.1013 77.7543 47.3454 37.3386 24.2277 17.347 16.016 50.7552 10.0392 17.5356 12.5322 11.9339 8.22906 40.716 61.7383 32.3292 29.4091 13.111
internal_count=874 523 263 169 260 228 132 94 76 351 57 83 67 75 52 294 93 51 42 96
is_linear=0
shrinkage=1


Tree=1
num_leaves=26
num_cat=0
split_feature=935 1164 1433 412 699 45 464 314 875 656 486 1039 806 1970 650 1236 1145 1357 1199 1097 1043 656 714 114 1665
split_gain=383.591 136.525 66.8818 72.8172 61.3056 43.9593 29.2886 28.7041 24.2792 14.8923 14.2553 16.4687 10.5217 25.4086 7.41924 6.37475 6.31737 5.73456 0.0962283 0.00297889 0.00188994 0.0017165 1.20681e-05 7.10543e-15 8.88178e-16
threshold=1.0000000180025095e-35 1.0000000180025095e-35 1.0000000180025095e-35 1.0000000180025095e-35 1.0000000180025095e-35 1.0000000180025095e-35 1.0000000180025095e-35 1.0000000180025095e-35 1.0000000180025095e-35 1.0000000180025095e-35 1.0000000180025095e-35 1.0000000180025095e-35 1.0000000180025095e-35 1.0000000180025095e-35 1.0000000180025095e-35 1.0000000180025095e-35 1.0000000180025095e-35 1.0000000180025095e-35 1.0000000180025095e-35 1.0000000180025095e-35 1.0000000180025095e-35 1.0000000180025095e-35 1.0000000180025095e-35 1.0000000180025095e-35 1.0000000180025095e-35
decision_type=2 2 2 2 2 2 2 2 2 2 2 2 2 2 2 2 2 2 2 2 2 2 2 2 2
left_child=4 2 3 5 12 6 10 -6 -3 -7 11 -2 13 17 -4 19 20 -1 -14 -10 -5 22 -16 -21 -25
right_child=1 8 14 16 7 9 -8 -9 15 -11 -12 -13 18 -15 21 -17 -18 -19 -20 23 -22 -23 -24 24 -26
leaf_value=-0.26102326082191807 -0.37753289148475611 -0.096055374719634878 -0.070275220577133479 0.12065616378646485 0.040256427397589917 -0.12815003007756043 -0.079875685514216102 -0.28153960086285079 0.12072276953273474 0.1230119609549447 -0.18987869720506043 -0.21612305396507037 -0.38681827024969417 -0.37565152598711959 0.11758116009300412 -0.021365732571954885 -0.056676995721817419 -0.13164649019359551 -0.37789486679157491 0.11730734575771287 0.11730734575771284 0.1204275712403724 0.11730734575771284 0.11730734575771287 0.11730734575771283
leaf_weight=7.8613897114992124 21.184812620282173 7.0368044525384894 2.6744766980409596 2.6420562863349897 6.2316831797361356 6.0325367748737317 7.4795376360416403 4.9927967637777328 2.7596794366836539 3.8786394894123077 9.6732080280780774 9.0094547867774981 22.598066329956055 23.079082012176514 2.537486657500267 3.6268242746591559 2.8669927269220352 6.0723343789577484 25.976365685462952 28.424219280481339 4.6535226255655289 2.5821769088506699 4.4019808620214462 3.2700429260730735 2.5154176354408264
leaf_count=20 33 36 15 19 39 25 35 13 20 26 33 33 23 25 20 22 16 30 28 226 37 19 35 26 20
internal_value=-0.172614 -0.0584873 -0.138605 -0.177587 -0.322622 -0.22137 -0.261459 -0.102883 0.0754265 -0.0298603 -0.295525 -0.329371 -0.35144 -0.311273 0.0768901 0.105151 0.0690947 -0.204641 -0.382046 0.117562 0.11852 0.118226 0.117407 0.117307 0.117307
internal_weight=224.062 127.25 79.6169 67.4208 96.8117 57.2582 47.347 11.2245 47.633 9.91118 39.8675 30.1943 85.5872 37.0128 12.1961 40.5962 10.1626 13.9337 48.5744 36.9694 7.29558 9.52164 6.93947 34.2097 5.78546
internal_count=874 696 346 257 178 185 134 52 350 51 99 66 126 75 89 314 72 50 51 292 56 74 55 272 46
is_linear=0
shrinkage=0.1


Tree=2
num_leaves=24
num_cat=0
split_feature=935 1164 1956 1897 1928 1160 1171 744 875 1162 1683 656 1928 1057 1982 695 1057 750 448 1236 1928 168 1097
split_gain=241.732 103.479 49.1636 53.1056 35.9546 26.5793 26.33 23.8535 21.0208 18.4344 13.1673 24.8467 27.4706 7.28627 6.11924 3.32915 4.24126 0.319086 0.00717285 0.00528429 0.00232845 0.00227596 0.00210766
threshold=1.0000000180025095e-35 1.0000000180025095e-35 1.0000000180025095e-35 1.0000000180025095e-35 1.0000000180025095e-35 1.0000000180025095e-35 1.0000000180025095e-35 1.0000000180025095e-35 1.0000000180025095e-35 1.0000000180025095e-35 1.0000000180025095e-35 1.0000000180025095e-35 1.0000000180025095e-35 1.0000000180025095e-35 1.0000000180025095e-35 1.0000000180025095e-35 1.0000000180025095e-35 1.0000000180025095e-35 1.0000000180025095e-35 1.0000000180025095e-35 1.0000000180025095e-35 1.0000000180025095e-35 1.0000000180025095e-35
decision_type=2 2 2 2 2 2 2 2 2 2 2 2 2 2 2 2 2 2 2 2 2 2 2
left_child=4 2 3 5 15 9 -6 18 -3 10 11 12 -2 -5 19 16 -1 -17 20 22 -4 -15 -10
right_child=1 8 7 13 6 -7 -8 -9 14 -11 -12 -13 -14 21 -16 17 -18 -19 -20 -21 -22 -23 -24
leaf_value=-0.28579752395077551 -0.23008782389477911 -0.081171448453165887 0.12224265015786839 -0.079996451291162951 -0.21584430252095876 -0.29120655051504268 0.043056190496198743 -0.12686919017052423 0.11839468156891522 -0.29278016227154585 -0.19562173495391644 0.12542200925586541 0.042358614645200965 0.119075376718978 -0.017726609589279619 -0.28066805691815938 -0.20900679352629156 -0.29462575554967346 0.11556468478499338 0.12038652093319842 0.11856204629658891 0.11538775088636016 0.1153916305274922
leaf_weight=14.133074417710304 9.8430852591991442 7.4688809365034095 4.1020873636007327 2.5682152658700943 10.103370994329454 17.890575349330902 6.4268405884504309 6.0322347432374945 2.5436276942491558 6.9534490108489981 12.351173982024191 5.1448520421981803 5.9307904765009871 2.7500043585896474 3.8071816638112059 33.365410283207893 14.645886346697807 32.171335935592651 4.4230785667896271 2.5301071256399146 2.9584202915430069 4.2761920168995857 28.782952286303043
leaf_count=15 24 36 29 15 24 29 40 26 20 7 32 34 31 21 27 37 34 28 38 18 23 37 249
internal_value=-0.142663 -0.0503489 -0.115186 -0.153817 -0.251227 -0.189802 -0.115185 0.0341436 0.0720831 -0.144699 -0.113749 -0.0654092 -0.127651 0.0641446 0.102474 -0.27507 -0.246718 -0.28752 0.118722 0.115991 0.1207 0.116831 0.115635
internal_weight=241.203 130.357 85.2242 67.7083 110.846 58.1139 16.5302 17.5158 45.1327 40.2234 33.2699 20.9187 15.7739 9.59441 37.6639 94.3157 28.779 65.5367 11.4836 33.8567 7.06051 7.0262 31.3266
internal_count=874 696 346 230 178 157 64 116 350 128 121 89 55 73 314 114 49 65 90 287 52 58 269
is_linear=0
shrinkage=0.1


Tree=3
num_leaves=31
num_cat=0
split_feature=935 1480 575 1199 1825 1928 1385 1171 744 1152 1452 1097 1452 1039 1245 191 806 1970 350 1928 1991 1097 45 1840 1145 1114 1665 1845 322 715
split_gain=170.358 71.3767 38.3634 29.4803 26.5011 24.7646 23.1039 18.7932 15.094 16.3928 10.8652 12.7883 10.7144 9.33003 9.10699 4.77927 3.60555 10.1895 0.090627 0.0808335 0.019953 0.0125622 0.0162503 0.00270726 0.00356937 0.00127736 0.000731403 0.000525798 0.000460709 7.76372e-05
threshold=1.0000000180025095e-35 1.0000000180025095e-35 1.0000000180025095e-35 1.0000000180025095e-35 1.0000000180025095e-35 1.0000000180025095e-35 1.0000000180025095e-35 1.0000000180025095e-35 1.0000000180025095e-35 1.0000000180025095e-35 1.0000000180025095e-35 1.0000000180025095e-35 1.0000000180025095e-35 1.0000000180025095e-35 1.0000000180025095e-35 1.0000000180025095e-35 1.0000000180025095e-35 1.0000000180025095e-35 1.0000000180025095e-35 1.0000000180025095e-35 1.0000000180025095e-35 1.0000000180025095e-35 1.0000000180025095e-35 1.0000000180025095e-35 1.0000000180025095e-35 1.0000000180025095e-35 1.0000000180025095e-35 1.0000000180025095e-35 1.0000000180025095e-35 1.0000000180025095e-35
decision_type=2 2 2 2 2 2 2 2 2 2 2 2 2 2 2 2 2 2 2 2 2 2 2 2 2 2 2 2 2 2
left_child=5 2 3 6 10 16 8 -7 14 -10 -3 -12 -5 -6 20 -14 17 -1 -18 -13 21 23 25 24 -2 26 27 28 29 -23
right_child=1 4 -4 12 13 7 -8 -9 9 -11 11 19 15 -15 -16 -17 18 -19 -20 -21 -22 22 -24 -25 -26 -27 -28 -29 -30 -31
leaf_value=-0.13824172585570754 0.12329090268949768 -0.24038480766858347 -0.20800811486215781 -0.19517021925869782 0.11926709093574189 -0.17715124353564415 -0.12516155383574354 0.039890442201945236 -0.13965962039264251 0.11825796144598777 -0.015857809458789864 -0.17874110286207145 0.03530928112297331 -0.085917662607422285 -0.07918814788245751 -0.10501510053284285 -0.24786441099332587 -0.24072801861073054 -0.23994710601044253 -0.19397163480280019 0.12363595363971075 0.1138100526991464 0.12231105452113887 0.11717580131829425 0.11852791295020589 0.11658468611597946 0.11611218968052904 0.11570099524944499 0.1153929830025342 0.11435047553189448
leaf_weight=14.615232288837431 3.2239722386002523 16.829659521579742 7.3565720841288558 6.0528759360313407 4.2123311161994916 11.022002294659616 5.947251893579959 6.2526099234819403 5.7312248796224576 4.3231156021356583 6.4874338805675515 8.0876852348446828 5.541632376611231 4.6763702630996704 2.4954751804471007 4.3186358585953712 32.145902693271637 28.852371007204056 26.275304362177849 6.1227003633975992 4.4334785714745513 12.566229738295094 3.1907242983579627 2.6884929016232491 3.0731446966528893 3.3508256748318663 2.5007824450731269 2.3791347220540038 2.4666654691100112 3.3715102076530448
leaf_count=40 22 23 18 14 34 24 24 40 28 35 24 29 35 18 14 18 27 25 22 17 33 118 23 22 24 28 21 21 22 31
internal_value=-0.122716 -0.0442058 0.0102482 0.0309244 -0.143939 -0.209306 0.0622045 -0.0985922 0.0821762 -0.0287615 -0.180713 -0.132193 -0.0904405 0.0113188 0.106562 -0.0261505 -0.228077 -0.206269 -0.244304 -0.185303 0.117281 0.116555 0.115567 0.119832 0.120966 0.114759 0.114496 0.114302 0.114121 0.113924
internal_weight=250.591 131.428 85.0117 77.6552 46.4162 119.163 61.742 17.2746 55.7948 10.0543 37.5275 20.6978 15.9131 8.8887 45.7404 9.86027 101.889 43.4676 58.4212 14.2104 43.245 38.8115 29.8259 8.98561 6.29712 26.6351 23.2843 20.7835 18.4044 15.9377
internal_count=874 696 551 533 145 178 466 64 442 63 93 70 67 52 379 53 114 65 49 46 365 332 264 68 46 241 213 192 171 149
is_linear=0
shrinkage=0.1


Tree=4
num_leaves=31
num_cat=0
split_feature=1164 1535 352 1816 1325 350 1765 1816 389 699 1019 1088 1236 184 310 378 1617 1236 1088 43 412 875 168 1783 168 310 1665 656 1452 1754
split_gain=141.127 63.3364 40.8654 35.3774 29.5002 27.9472 24.7564 31.9641 16.5988 13.5691 11.3272 7.22528 6.69234 6.63801 4.77786 1.49172 5.98246 0.179189 0.0685454 0.0539487 0.0765412 0.0338021 0.00725311 0.00254218 0.00221512 0.000779306 0.000641794 0.000384763 7.56398e-05 3.92009e-05
threshold=1.0000000180025095e-35 1.0000000180025095e-35 1.0000000180025095e-35 1.0000000180025095e-35 1.0000000180025095e-35 1.0000000180025095e-35 1.0000000180025095e-35 1.0000000180025095e-35 1.0000000180025095e-35 1.0000000180025095e-35 1.0000000180025095e-35 1.0000000180025095e-35 1.0000000180025095e-35 1.0000000180025095e-35 1.0000000180025095e-35 1.0000000180025095e-35 1.0000000180025095e-35 1.0000000180025095e-35 1.0000000180025095e-35 1.0000000180025095e-35 1.0000000180025095e-35 1.0000000180025095e-35 1.0000000180025095e-35 1.0000000180025095e-35 1.0000000180025095e-35 1.0000000180025095e-35 1.0000000180025095e-35 1.0000000180025095e-35 1.0000000180025095e-35 1.0000000180025095e-35
decision_type=2 2 2 2 2 2 2 2 2 2 2 2 2 2 2 2 2 2 2 2 2 2 2 2 2 2 2 2 2 2
left_child=1 3 4 10 6 8 7 17 12 -5 15 -12 21 -11 -15 -1 18 19 -17 20 22 -2 -3 26 -21 -25 27 28 -23 -26
right_child=5 2 -4 9 -6 -7 -8 -9 -10 13 11 -13 -14 14 -16 16 -18 -19 -20 24 -22 23 -24 25 29 -27 -28 -29 -30 -31
leaf_value=-0.21927961811892011 0.12294809374116869 0.13302038663720167 -0.20803382163722769 -0.15405573794737923 -0.18260030445668102 -0.26040247713222614 -0.13042877789847626 -0.14393481828698512 -0.10617455271735682 -0.085522219904614907 -0.061824463976884264 -0.17966544930576991 -0.033802247834559464 0.12275712341085827 -0.033206895364926207 -0.1442423282171314 -0.21656859950559162 0.14430331874471744 -0.15601138009724039 0.11639274710686009 0.11237925907061366 0.11288258165444608 0.12729766284277458 0.11397781071639992 0.11244341090364691 0.11598993194648609 0.11445944545928631 0.11350828966381066 0.11230693286909897 0.11304209877960776
leaf_weight=48.315162420272827 4.3497247546911231 4.167188599705705 12.838881619274614 8.441496804356575 7.7343087047338477 2.5914425030350676 7.4197154194116584 5.4435908421874037 4.3430833071470252 4.7569705173373213 9.5580182671546936 11.419547438621521 3.3457750007510176 5.0976415276527405 3.1954433545470238 8.5896110013127327 44.508966684341431 4.0098481327295294 11.675198346376419 2.7203811109066001 3.4217402711510649 2.8929585665464481 4.7269150167703629 3.7129802256822577 2.0588021501898766 3.9969266355037689 2.3070624470710746 4.3445688411593428 10.819629430770874 2.3330918252468109
leaf_count=39 30 24 26 19 21 7 22 17 21 22 31 15 21 36 17 23 35 19 26 23 35 29 29 35 21 34 21 42 111 23
internal_value=-0.108006 -0.141352 -0.0510492 -0.174369 -0.00527917 0.0578737 0.0325007 0.0743575 0.0784356 -0.0552602 -0.193463 -0.125974 0.100851 0.00864628 0.062662 -0.205981 -0.196062 0.125057 -0.151023 0.121085 0.125089 0.114745 0.129979 0.113474 0.11415 0.115021 0.112889 0.112688 0.112428 0.112761
internal_weight=255.137 212.433 56.8745 155.558 44.0356 42.7042 36.3013 28.8816 40.1127 21.4916 134.067 20.9776 35.7696 13.0501 8.29308 113.089 64.7738 23.438 20.2648 19.4281 12.3158 32.4239 8.8941 28.0741 7.11228 7.70991 20.3642 18.0572 13.7126 4.39189
internal_count=874 523 260 263 234 351 213 191 344 94 169 46 323 75 53 123 84 174 49 155 88 302 53 272 67 69 203 182 140 44
is_linear=0
shrinkage=0.1


Tree=5
num_leaves=31
num_cat=0
split_feature=935 1480 1097 1586 202 802 875 656 1152 1825 1928 1928 806 1114 1991 1722 835 1765 1114 1452 1845 1101 1114 1956 1088 1336 1387 1696 314 980
split_gain=115.154 69.7877 32.6041 20.0948 21.6378 19.2146 17.1182 14.6085 20.9163 12.4087 21.0345 11.8502 8.84954 17.7179 7.37521 6.32934 4.88702 4.49646 0.880068 0.359182 0.550744 0.0203493 0.0090627 0.00389914 0.00332011 0.00176285 0.00180963 0.00162949 0.000599082 0.000300107
threshold=1.0000000180025095e-35 1.0000000180025095e-35 1.0000000180025095e-35 1.0000000180025095e-35 1.0000000180025095e-35 1.0000000180025095e-35 1.0000000180025095e-35 1.0000000180025095e-35 1.0000000180025095e-35 1.0000000180025095e-35 1.0000000180025095e-35 1.0000000180025095e-35 1.0000000180025095e-35 1.0000000180025095e-35 1.0000000180025095e-35 1.0000000180025095e-35 1.0000000180025095e-35 1.0000000180025095e-35 1.0000000180025095e-35 1.0000000180025095e-35 1.0000000180025095e-35 1.0000000180025095e-35 1.0000000180025095e-35 1.0000000180025095e-35 1.0000000180025095e-35 1.0000000180025095e-35 1.0000000180025095e-35 1.0000000180025095e-35 1.0000000180025095e-35 1.0000000180025095e-35
decision_type=2 2 2 2 2 2 2 2 2 2 2 2 2 2 2 2 2 2 2 2 2 2 2 2 2 2 2 2 2 2
left_child=12 2 3 4 9 14 -3 8 18 10 -2 -9 13 16 21 -15 -1 -12 -8 -14 -21 22 25 -5 -6 26 29 28 -28 -4
right_child=1 6 5 23 24 -7 7 11 -10 -11 17 -13 19 15 -16 -17 -18 -19 -20 20 -22 -23 -24 -25 -26 -27 27 -29 -30 -31
leaf_value=-0.12300020828268753 -0.15552530409691229 -0.23277240843795274 0.11158035948299297 0.12547060066390914 0.1146530852928202 -0.1346848931481158 -0.16301910634507932 0.12627386152163311 0.0087339078787310384 -0.19583562431099114 0.12399303255275694 -0.10829117451787269 -0.20051385358687265 -0.10174381957891179 -0.059288912077986616 0.043865037889038408 -0.19514069592232533 -0.028577302149547942 -0.20454330436151921 -0.17520650289657713 -0.19657154218310541 0.1215457520352234 0.11777573947292262 0.12036383421170177 0.11984425918495856 0.11532885012642489 0.1114080319728426 0.11503404614436241 0.11350276013893074 0.11258810883327718
leaf_weight=14.447851546108721 10.038188800215721 12.458611026406286 12.063679531216623 3.0485865399241439 2.376962184906005 3.7642601504921904 9.7026438042521512 4.6021644920110685 7.672197461128234 10.504873648285868 4.7411822527647018 4.0483435317873955 29.262248635292053 6.2013795599341375 2.6343187913298598 5.7562514990568161 26.826358318328857 3.2597498819231987 10.76904258877039 22.865345150232315 25.544620633125305 3.3557794988155356 4.0629848763346663 2.934099406003952 2.5577832758426666 2.3750062882900229 2.8279469981789589 4.2253569886088371 2.6397657468914986 3.9138178825378427
leaf_count=37 27 12 131 21 22 14 26 33 31 26 34 14 23 19 15 29 21 16 16 23 20 28 35 22 21 22 31 39 26 40
internal_value=-0.103964 -0.0375189 0.0193745 -0.0458416 -0.0760077 0.0808493 -0.131459 -0.0971537 -0.132087 -0.109435 -0.05912 0.0165 -0.170243 -0.138835 0.102145 -0.0316496 -0.169888 0.0618326 -0.184863 -0.191767 -0.18648 0.114136 0.113362 0.122966 0.117344 0.112722 0.112481 0.113559 0.112419 0.111827
internal_weight=261.481 130.577 81.3243 39.4614 33.4787 41.8629 49.253 36.7944 28.1439 28.544 18.0391 8.65051 130.904 53.2318 38.0987 11.9576 41.2742 8.00093 20.4717 77.6722 48.41 35.4643 32.1086 5.98269 4.93475 28.0456 25.6706 9.69307 5.46771 15.9775
internal_count=874 702 570 189 146 381 132 120 73 103 77 47 172 106 367 48 58 50 42 66 43 352 324 43 43 289 267 96 57 171
is_linear=0
shrinkage=0.1


Tree=6
num_leaves=31
num_cat=0
split_feature=935 1480 1145 412 1783 1928 787 1825 14 807 1199 1410 1141 1160 1452 378 314 1991 1637 961 314 1160 806 1840 1917 1160 650 1087 168 412
split_gain=93.756 55.4404 28.4918 28.8078 22.3268 13.6001 29.2382 11.115 11.9487 9.55004 12.3701 8.93646 5.06729 3.65983 5.79552 2.41789 11.2358 12.8935 0.0310235 0.0260376 0.0179152 0.0111242 0.00310379 0.00186504 0.00176964 0.00110006 0.000785637 0.000655492 0.000488579 0.000219885
threshold=1.0000000180025095e-35 1.0000000180025095e-35 1.0000000180025095e-35 1.0000000180025095e-35 1.0000000180025095e-35 1.0000000180025095e-35 1.0000000180025095e-35 1.0000000180025095e-35 1.0000000180025095e-35 1.0000000180025095e-35 1.0000000180025095e-35 1.0000000180025095e-35 1.0000000180025095e-35 1.0000000180025095e-35 1.0000000180025095e-35 1.0000000180025095e-35 1.0000000180025095e-35 1.0000000180025095e-35 1.0000000180025095e-35 1.0000000180025095e-35 1.0000000180025095e-35 1.0000000180025095e-35 1.0000000180025095e-35 1.0000000180025095e-35 1.0000000180025095e-35 1.0000000180025095e-35 1.0000000180025095e-35 1.0000000180025095e-35 1.0000000180025095e-35 1.0000000180025095e-35
decision_type=2 2 2 2 2 2 2 2 2 2 2 2 2 2 2 2 2 2 2 2 2 2 2 2 2 2 2 2 2 2
left_child=9 2 3 4 5 -2 12 13 -9 10 -1 18 24 14 -3 -11 17 -17 22 20 23 -22 -5 -4 -7 -20 -27 -6 29 -21
right_child=1 7 19 11 27 6 -8 8 -10 15 -12 -13 -14 -15 -16 16 -18 -19 25 28 21 -23 -24 -25 -26 26 -28 -29 -30 -31
leaf_value=0.008518383680414807 -0.16727554311664883 -0.15566909546057894 0.11500815856155595 0.12311151186787324 0.11386915209303772 0.12020731166010473 -0.18807166998247882 0.11941101296384626 -0.13435137706756531 -0.18152757798608096 -0.17249788297444044 -0.097086361372212576 -0.030524256900629543 -0.16609504697320132 -0.053043480684310751 -0.0032858517012678565 -0.17961587395062373 -0.15892159527570671 0.11008280847472285 0.11270321806712434 0.12531753791612213 0.11729464468284817 0.11824214039657817 0.11079841183544258 0.12346101513771486 0.11108031624991524 0.11357206682974648 0.1116196458087691 0.11053927591239297 0.11119233614473326
leaf_weight=7.7743817493319494 15.526729479432104 11.717192143201828 1.9592819809913633 2.5661500468850145 1.9263586401939381 3.891001224517824 7.5090086236596099 3.8402721360325804 3.5902483463287354 46.525012731552124 7.3388916552066803 2.2975927069783202 3.2244903892278671 20.561120040714741 10.375366166234016 9.270686075091362 46.764852583408356 12.500240847468376 4.9634080156683922 1.8957745805382729 3.2102759629487991 3.743636317551136 2.6720812767744064 2.273623414337635 2.930573582649231 2.8940093591809273 2.2484526112675667 3.9546464830636978 7.1657270193099976 1.9581965506076813
leaf_count=35 32 16 18 18 19 32 15 32 9 37 11 13 16 38 37 35 39 15 60 20 21 33 22 26 21 33 22 43 84 22
internal_value=-0.0942554 -0.0337999 0.018482 -0.0191781 -0.0671818 -0.0990986 -0.038799 -0.116069 -0.00320086 -0.154117 -0.0793818 0.0868412 0.0727761 -0.135732 -0.107473 -0.163933 -0.15199 -0.0926474 0.114382 0.114478 0.117876 0.120998 0.120628 0.112747 0.121605 0.111145 0.11217 0.112356 0.111028 0.111936
internal_weight=259.069 128.895 78.811 56.6045 38.9628 33.0818 17.5551 50.0842 7.43052 130.174 15.1133 17.6417 10.0461 42.6537 22.0926 115.061 68.5358 21.7709 15.3441 22.2065 11.1868 6.95391 5.23823 4.23291 6.82157 10.1059 5.14246 5.88101 11.0197 3.85397
internal_count=874 702 570 346 178 116 84 132 41 172 46 168 69 91 53 126 89 50 155 224 98 54 40 44 53 115 55 62 126 42
is_linear=0
shrinkage=0.1


Tree=7
num_leaves=31
num_cat=0
split_feature=1164 1433 1956 1722 162 1928 1199 1535 561 1152 1060 1589 1160 926 1039 1152 378 171 1039 412 875 1910 1480 922 389 203 1120 1970 314 1453
split_gain=97.3988 48.2043 30.8232 16.583 12.8943 12.6447 10.3651 15.4465 13.0818 10.7122 9.64537 7.15674 5.71355 8.48308 11.5288 3.24219 2.4135 8.9008 2.38015 0.0652866 0.0234975 0.0182153 0.0136198 0.00541056 0.00207011 0.00110058 0.000383894 0.000454292 0.000315028 0.000182936
threshold=1.0000000180025095e-35 1.0000000180025095e-35 1.0000000180025095e-35 1.0000000180025095e-35 1.0000000180025095e-35 1.0000000180025095e-35 1.0000000180025095e-35 1.0000000180025095e-35 1.0000000180025095e-35 1.0000000180025095e-35 1.0000000180025095e-35 1.0000000180025095e-35 1.0000000180025095e-35 1.0000000180025095e-35 1.0000000180025095e-35 1.0000000180025095e-35 1.0000000180025095e-35 1.0000000180025095e-35 1.0000000180025095e-35 1.0000000180025095e-35 1.0000000180025095e-35 1.0000000180025095e-35 1.0000000180025095e-35 1.0000000180025095e-35 1.0000000180025095e-35 1.0000000180025095e-35 1.0000000180025095e-35 1.0000000180025095e-35 1.0000000180025095e-35 1.0000000180025095e-35
decision_type=2 2 2 2 2 2 2 2 2 2 2 2 2 2 2 2 2 2 2 2 2 2 2 2 2 2 2 2 2 2
left_child=1 2 5 19 10 12 7 8 9 -7 11 20 13 16 -15 -14 -1 18 -18 -4 23 25 24 -2 26 -3 27 28 29 -22
right_child=4 21 3 -5 -6 6 -8 -9 -10 -11 -12 -13 15 14 -16 -17 17 -19 -20 -21 22 -23 -24 -25 -26 -27 -28 -29 -30 -31
leaf_value=-0.1662876821384125 0.1224179544355837 0.11245782550062643 0.12813092675589885 -0.095518799767289025 -0.097327342132546207 -0.11964059393392035 -0.1611384169093395 0.072803451803904823 -0.17941156344609727 0.057535696234587021 -0.12700959435498549 -0.067681602308932928 -0.21175031184796 -0.020643049351864704 -0.17120405518603182 -0.15128894614717117 -0.043972797506137744 -0.16515170437017415 -0.11565343218940388 0.10954930170234863 0.10906825782296328 0.120472825902395 0.11681159131491854 0.11578039048700653 0.1136255455917653 0.10971675667945634 0.11098662038601553 0.11135962254076991 0.11054048521652915 0.11002130473859378
leaf_weight=41.470872282981873 2.4070469960570398 2.8488474413752538 4.2832978144288045 6.6886348500847816 4.4085348546504965 6.6932755261659658 12.707630679011343 7.3438872620463362 10.101374611258507 6.9619072303175926 2.0166781097650519 2.3833102211356154 17.538963034749031 13.210267066955566 8.269410103559494 17.942306622862816 9.6177191287279129 32.822467923164368 8.9366425722837448 3.3852631822228432 7.1918732598424011 3.1538354232907295 3.9116641283035269 2.5072921365499496 1.7524645254015911 3.0151236578822136 3.3540663868188849 1.6510706618428237 2.7695788294076928 2.7974729239940643
leaf_count=34 18 31 28 28 27 16 19 37 15 39 11 13 17 40 11 23 28 27 14 43 95 24 35 22 17 38 38 19 33 34
internal_value=-0.0863874 -0.112003 -0.121817 0.0195571 0.0632271 -0.132301 -0.0850428 -0.0539501 -0.0931336 -0.0293097 0.0848446 0.0987496 -0.14612 -0.135241 -0.0786072 -0.181176 -0.148342 -0.133857 -0.0784975 0.119928 0.112745 0.114344 0.111426 0.119031 0.110347 0.111048 0.110023 0.109799 0.109597 0.109335
internal_weight=254.143 216.992 207.974 14.3572 37.1511 193.617 43.8081 31.1004 23.7566 13.6552 32.7425 30.7258 149.809 114.327 21.4797 35.4813 92.8477 51.3768 18.5544 7.66856 28.3425 9.01781 23.4282 4.91434 19.5165 5.86397 17.7641 14.41 12.7589 9.98935
internal_count=874 512 419 99 362 320 126 107 70 55 335 324 194 154 51 40 103 69 42 71 311 93 271 40 236 69 219 181 162 129
is_linear=0
shrinkage=0.1


Tree=8
num_leaves=31
num_cat=0
split_feature=1164 1433 45 74 1160 412 1991 1452 202 448 1385 843 926 1039 699 401 1019 1452 823 1199 718 1236 1910 875 1480 1114 1097 1199 862 1783
split_gain=80.6275 40.004 23.1293 16.1212 33.0029 17.6437 23.2915 12.505 18.3068 11.7323 10.9222 10.664 3.71882 3.0857 2.96262 2.62315 0.613091 0.67865 0.644628 0.0750351 0.0532687 0.0203011 0.0130154 0.00818653 0.00429167 0.00356995 0.00231317 0.00108772 0.000799645 0.000433441
threshold=1.0000000180025095e-35 1.0000000180025095e-35 1.0000000180025095e-35 1.0000000180025095e-35 1.0000000180025095e-35 1.0000000180025095e-35 1.0000000180025095e-35 1.0000000180025095e-35 1.0000000180025095e-35 1.0000000180025095e-35 1.0000000180025095e-35 1.0000000180025095e-35 1.0000000180025095e-35 1.0000000180025095e-35 1.0000000180025095e-35 1.0000000180025095e-35 1.0000000180025095e-35 1.0000000180025095e-35 1.0000000180025095e-35 1.0000000180025095e-35 1.0000000180025095e-35 1.0000000180025095e-35 1.0000000180025095e-35 1.0000000180025095e-35 1.0000000180025095e-35 1.0000000180025095e-35 1.0000000180025095e-35 1.0000000180025095e-35 1.0000000180025095e-35 1.0000000180025095e-35
decision_type=2 2 2 2 2 2 2 2 2 2 2 2 2 2 2 2 2 2 2 2 2 2 2 2 2 2 2 2 2 2
left_child=1 2 3 5 -5 11 20 8 -2 26 21 13 14 16 -13 -15 17 19 -19 -1 -7 23 28 -9 27 -10 -4 29 -3 -25
right_child=7 22 9 4 -6 6 -8 10 25 -11 -12 12 -14 15 -16 -17 -18 18 -20 -21 -22 -23 -24 24 -26 -27 -28 -29 -30 -31
leaf_value=-0.15734840952230242 -0.1850698980027807 0.11115485028343267 0.12060606857935641 0.1348281757103231 -0.14634565082005199 0.11409651471448984 -0.13822430427354107 0.11543578952629319 0.11010969738129357 -0.10468200210090589 -0.13418974116452173 -0.14293265407924502 -0.025227193787036237 -0.096201356846975505 -0.064667881523730097 -0.15396628151843147 -0.17214213559075908 -0.12889584082244826 -0.1550581650538744 -0.16555371242909378 0.13256675942739723 0.12097454964284374 0.1182113111986501 0.10858524561106714 0.11344844081613203 0.11621349440737323 0.12448420379811841 0.11176549259998084 0.1087107721231096 0.10968190513457897
leaf_weight=21.856686547398567 4.4447964355349523 2.6064106449484807 3.1691734194755536 7.2854797020554551 9.7759727388620377 3.3910755366086942 7.5202520787715912 3.0017638653516867 2.0006278082728386 3.6041430681943893 1.9522477015852917 9.9407576322555542 8.4145901948213595 17.929222323000431 9.4197826310992241 13.999647378921511 21.421590492129326 17.037507221102715 21.058758020401001 22.740340828895569 2.894019603729248 2.0414055511355391 2.9054866209626198 9.8683215007185954 2.8194555938243857 1.8390200883150103 2.9882111102342606 1.5478636994957931 2.7521499395370483 5.6774823069572458
leaf_count=21 9 31 27 42 15 39 11 27 25 7 11 15 27 42 31 12 26 28 18 19 19 16 24 137 29 19 20 17 38 72
internal_value=-0.0796815 -0.102879 -0.111597 -0.119129 -0.0262805 -0.128047 -0.0194795 0.0605245 -0.046906 0.0386126 0.0935996 -0.137197 -0.0807302 -0.148725 -0.104853 -0.121529 -0.157065 -0.153159 -0.143358 -0.161532 0.122601 0.111419 0.112822 0.110568 0.109834 0.113033 0.122488 0.109237 0.1099 0.108986
internal_weight=247.904 212.711 204.447 194.686 17.0615 177.624 13.8053 35.193 8.28444 9.76153 26.9085 163.819 27.7751 136.044 19.3605 31.9289 104.115 82.6933 38.0963 44.597 6.2851 24.9563 8.26405 22.9149 19.9131 3.83965 6.15738 17.0937 5.35856 15.5458
internal_count=874 512 419 365 57 308 69 362 53 54 309 239 73 166 46 54 112 86 46 40 58 298 93 282 255 44 47 226 69 209
is_linear=0
shrinkage=0.1


Tree=9
num_leaves=31
num_cat=0
split_feature=1164 1487 378 1928 656 1452 301 1791 694 736 1057 1840 1480 561 1945 575 807 1480 1970 1152 713 1199 43 486 1910 1236 1097 1114 1480 744
split_gain=67.4326 35.5107 17.8368 16.3581 12.0386 11.0189 14.6623 10.8435 10.0462 12.9041 15.0854 5.83455 8.854 4.12478 3.25803 1.99695 1.84403 2.37834 2.27287 0.864029 0.626613 1.55084 0.0679572 0.0130389 0.00742501 0.00568968 0.0056873 0.00269401 0.00257695 0.000426047
threshold=1.0000000180025095e-35 1.0000000180025095e-35 1.0000000180025095e-35 1.0000000180025095e-35 1.0000000180025095e-35 1.0000000180025095e-35 1.0000000180025095e-35 1.0000000180025095e-35 1.0000000180025095e-35 1.0000000180025095e-35 1.0000000180025095e-35 1.0000000180025095e-35 1.0000000180025095e-35 1.0000000180025095e-35 1.0000000180025095e-35 1.0000000180025095e-35 1.0000000180025095e-35 1.0000000180025095e-35 1.0000000180025095e-35 1.0000000180025095e-35 1.0000000180025095e-35 1.0000000180025095e-35 1.0000000180025095e-35 1.0000000180025095e-35 1.0000000180025095e-35 1.0000000180025095e-35 1.0000000180025095e-35 1.0000000180025095e-35 1.0000000180025095e-35 1.0000000180025095e-35
decision_type=2 2 2 2 2 2 2 2 2 2 2 2 2 2 2 2 2 2 2 2 2 2 2 2 2 2 2 2 2 2
left_child=1 3 -3 4 13 6 -2 25 9 10 15 -12 14 16 23 -5 17 -1 20 -6 21 -18 -4 -13 29 26 -7 -8 -28 -24
right_child=5 2 22 8 19 7 27 -9 -10 -11 11 12 -14 -15 -16 -17 18 -19 -20 -21 -22 -23 24 -25 -26 -27 28 -29 -30 -31
leaf_value=-0.087698274161434109 -0.15905398319789538 -0.14667185448001371 0.12706759383089447 -0.052662578453590715 -0.011773021712052092 0.11304200132396708 0.10906444016253136 -0.14430358370485294 -0.17430816374100089 -0.17552260366145822 0.12931241178135397 0.11228785159666771 -0.12422215488548181 -0.093231152126241848 -0.01192805543230761 -0.12502451035013315 -0.19015565035369936 -0.14844440534067135 -0.12647776910521755 -0.06112561003122248 -0.14561082114463905 -0.14696556906660305 0.1078141062095464 0.1225814186060942 0.1154248098056419 0.11562413401722944 0.10827158298779319 0.11460748450539456 0.11171777945636832 0.10985263014125779
leaf_weight=13.501175664365292 4.6426060199737531 3.3369691371917716 4.1954676583409292 8.8918858841061574 7.4364295750856382 3.7710264660418131 1.8267033994197845 1.8086742758750904 6.005714774131774 5.6232207268476477 6.2059107571840295 2.4490034654736501 3.4823677837848672 22.64025566726923 3.2185802683234215 6.6778104454278937 16.52167160063982 12.332516729831696 32.530792601406574 6.7831255197525024 18.877275679260492 16.734856083989143 2.9173236638307571 2.4734392762184143 2.3932801336050034 1.6416500136256207 15.164332196116449 1.6861364990472794 2.5321533195674411 1.5807741172611711
leaf_count=28 9 3 28 33 29 39 25 6 5 8 38 30 7 39 15 13 23 15 41 14 18 18 44 20 22 15 220 19 29 21
internal_value=-0.074108 -0.0953106 0.0560249 -0.106657 -0.122776 0.0584732 -0.0424198 0.0914948 -0.0539064 -0.035376 -0.0117802 0.0510235 0.00922385 -0.132116 0.0663061 -0.0836985 -0.140084 -0.116697 -0.14722 -0.0353156 -0.160162 -0.168422 0.117034 0.11746 0.110925 0.10995 0.109516 0.111725 0.108765 0.108531
internal_weight=239.883 206.81 14.4238 192.386 147.358 33.0733 8.15545 24.9178 45.0279 39.0222 33.399 17.8293 11.6234 133.139 8.14102 15.5697 110.498 25.8337 84.6646 14.2196 52.1338 33.2565 11.0868 4.92244 6.89138 23.1092 21.4675 3.51284 17.6965 4.4981
internal_count=874 512 118 394 225 362 53 309 169 164 156 110 72 182 65 46 143 43 100 43 59 41 115 50 87 303 288 44 249 65
is_linear=0
shrinkage=0.1


Tree=10
num_leaves=31
num_cat=0
split_feature=1535 412 1991 875 207 1440 289 1928 184 1765 1120 249 1114 935 807 1199 1970 1366 875 935 43 412 795 1097 1855 1866 807 650 926 202
split_gain=56.5519 22.7718 31.1311 19.3661 19.654 20.1434 12.9045 12.6252 18.7793 8.26295 12.4184 7.4821 6.51808 3.64536 1.62188 1.35776 0.689152 0.567255 0.154079 0.111976 0.0483095 0.0616012 0.0378911 0.0303461 0.00976015 0.00733678 0.00691575 0.00412863 0.00334962 0.00131695
threshold=1.0000000180025095e-35 1.0000000180025095e-35 1.0000000180025095e-35 1.0000000180025095e-35 1.0000000180025095e-35 1.0000000180025095e-35 1.0000000180025095e-35 1.0000000180025095e-35 1.0000000180025095e-35 1.0000000180025095e-35 1.0000000180025095e-35 1.0000000180025095e-35 1.0000000180025095e-35 1.0000000180025095e-35 1.0000000180025095e-35 1.0000000180025095e-35 1.0000000180025095e-35 1.0000000180025095e-35 1.0000000180025095e-35 1.0000000180025095e-35 1.0000000180025095e-35 1.0000000180025095e-35 1.0000000180025095e-35 1.0000000180025095e-35 1.0000000180025095e-35 1.0000000180025095e-35 1.0000000180025095e-35 1.0000000180025095e-35 1.0000000180025095e-35 1.0000000180025095e-35
decision_type=2 2 2 2 2 2 2 2 2 2 2 2 2 2 2 2 2 2 2 2 2 2 2 2 2 2 2 2 2 2
left_child=1 7 11 -2 5 6 9 14 12 17 -11 23 -9 -10 15 -1 18 19 -16 -5 21 26 -12 25 27 -3 -21 -22 -25 -23
right_child=3 2 -4 4 -6 -7 -8 8 13 10 22 -13 -14 -15 16 -17 -18 -19 -20 20 24 29 -24 28 -26 -27 -28 -29 -30 -31
leaf_value=-0.088326796203875055 -0.12364647017961505 0.1222616262175696 -0.14632540336607069 0.13410678735934736 -0.083034469020436097 -0.1518469308433133 -0.093682902479511845 -0.16880129704911154 -0.00121469695886623 -0.123901945769697 0.12745368875760266 -0.094759957025540784 -0.055456067057009943 0.13623677820804186 -0.14515308254140757 -0.1361814003885998 -0.13187591473071247 0.16289804535964608 -0.15603016647111179 0.12123236822996158 0.1104743772428511 0.11101880359969635 0.10948261879029245 0.10708158444143714 0.10780816957744754 0.11505133936843503 0.12791764474330508 0.11714264950896079 0.11208775166962728 0.10732849492628119
leaf_weight=11.198259972035885 10.355656526982782 3.0679045952856523 10.415133040398359 3.033263646066195 13.164693545550106 4.2455512210726729 4.0090285949408999 10.130875673145059 3.6700031384825706 3.8673388808965665 2.1346732378005981 2.0189966559410104 10.163427293300629 4.0684602558612815 27.306030660867691 12.599885612726212 32.983523890376091 2.8694091737270346 24.897828325629234 2.7818633243441582 1.8117668852210036 1.7387578189373019 2.6049866378307343 4.0055523365736008 9.0819970928132534 2.6134089156985283 3.4870298467576504 1.9045295305550098 2.0058500207960606 2.1788142845034599
leaf_count=28 28 26 21 18 33 10 16 19 17 23 15 7 27 26 26 16 35 13 25 25 24 22 35 66 141 25 23 19 24 36
internal_value=-0.0730933 -0.105574 -0.0159906 0.00246929 0.0246375 0.0556211 0.0768438 -0.121349 -0.0614963 0.0950771 0.00907423 0.083009 -0.112038 0.0710498 -0.136744 -0.113663 -0.143191 0.120702 -0.150341 0.116048 0.113665 0.118804 0.117577 0.113705 0.109575 0.118945 0.124951 0.113892 0.108752 0.108966
internal_weight=230.415 161.145 24.1268 69.2694 58.9137 45.749 41.5035 137.018 28.0328 37.4944 8.607 13.7117 20.2943 7.73846 108.986 23.7981 85.1874 28.8874 52.2039 26.018 22.9848 10.1865 4.73966 11.6927 12.7983 5.68131 6.26889 3.7163 6.0114 3.91757
internal_count=869 388 169 481 453 420 410 219 89 394 73 148 46 43 130 44 86 321 51 308 290 106 50 141 184 51 48 43 90 58
is_linear=0
shrinkage=0.1


Tree=11
num_leaves=31
num_cat=0
split_feature=1535 1866 875 207 1440 289 806 1452 378 1160 841 1247 802 1043 1816 673 1855 650 1101 835 1366 1199 1164 43 1722 1160 1487 168 168 1765
split_gain=48.0117 20.5569 15.8669 16.4364 16.9314 11.1492 8.98725 7.96646 16.1326 10.1358 19.4931 7.93597 8.0811 6.7526 6.29046 4.88415 4.50939 3.87425 3.58833 1.23882 0.379172 0.203133 0.0897024 0.0811242 0.0330897 0.0204014 0.0122386 0.00876478 0.0017647 0.000954916
threshold=1.0000000180025095e-35 1.0000000180025095e-35 1.0000000180025095e-35 1.0000000180025095e-35 1.0000000180025095e-35 1.0000000180025095e-35 1.0000000180025095e-35 1.0000000180025095e-35 1.0000000180025095e-35 1.0000000180025095e-35 1.0000000180025095e-35 1.0000000180025095e-35 1.0000000180025095e-35 1.0000000180025095e-35 1.0000000180025095e-35 1.0000000180025095e-35 1.0000000180025095e-35 1.0000000180025095e-35 1.0000000180025095e-35 1.0000000180025095e-35 1.0000000180025095e-35 1.0000000180025095e-35 1.0000000180025095e-35 1.0000000180025095e-35 1.0000000180025095e-35 1.0000000180025095e-35 1.0000000180025095e-35 1.0000000180025095e-35 1.0000000180025095e-35 1.0000000180025095e-35
decision_type=2 2 2 2 2 2 2 2 2 2 2 2 2 2 2 2 2 2 2 2 2 2 2 2 2 2 2 2 2 2
left_child=1 7 -2 4 5 11 13 8 21 10 24 12 20 14 15 -3 -11 -8 -15 -9 22 -1 23 25 -10 27 -25 -4 -28 -24
right_child=2 6 3 -5 -6 -7 17 19 9 16 -12 -13 -14 18 -16 -17 -18 -19 -20 -21 -22 -23 29 26 -26 -27 28 -29 -30 -31
leaf_value=-0.12753508679238429 -0.1112370523204501 -0.15741767833525519 0.11597948251778833 -0.07391443925981224 -0.13632733712953249 -0.081771262952897425 -0.030304893322616946 -0.16858745242114465 0.14321294160974346 -0.043257754583398943 -0.12344719129806503 -0.074208131832325275 -0.086743111175918708 0.12442105953523777 -0.010156045134800862 -0.05165203714244402 -0.15727712810690897 0.13144053217737411 -0.04226252443891898 -0.13605795164156695 0.15408308290435163 -0.14128453347620903 0.10715284700950028 0.11751565080013682 0.1296060430118495 0.12915655684279242 0.11040197888109615 0.12430192955361513 0.10639332295704103 0.10919079313867192
leaf_weight=19.041293755173683 10.359270058572291 10.11373643577099 2.3999718092382043 13.302126701921223 4.2551587149500838 4.1269104555249205 2.3241449110209933 22.153146296739578 3.3167530819773674 7.8551406115293503 4.8552921637892723 2.6552412994205943 2.0460637137293807 2.7981386855244628 9.2665915116667765 7.6829383596777907 6.2115144096314907 4.0815875753760338 2.3987113833427429 24.827973008155823 2.736997961997985 24.661800146102905 7.1525250002741796 1.8929707780480374 3.8754611536860466 5.5050337128341198 1.8063988313078878 2.6768603399395943 2.8010382987558842 3.3884486891329288
leaf_count=21 28 14 29 33 10 16 20 23 22 34 9 27 11 43 38 32 11 39 8 25 13 24 121 18 25 35 23 18 51 48
internal_value=-0.068123 -0.0986373 0.00257038 0.0233466 0.0531272 0.0736986 -0.0354371 -0.11956 -0.0981359 -0.0359503 0.0313686 0.0919981 0.105616 -0.0569205 -0.076969 -0.111758 -0.0936061 0.0727556 0.0474849 -0.151397 0.11858 -0.135294 0.115062 0.119539 0.135881 0.12494 0.110746 0.120368 0.107965 0.107808
internal_weight=222.569 155.464 67.105 56.7457 43.4436 39.1885 38.6658 116.798 69.8173 26.1142 12.0475 35.0616 32.4063 32.2601 27.0633 17.7967 14.0667 6.40573 5.19685 46.9811 30.3602 43.7031 27.6232 17.0823 7.19221 10.5819 6.50041 5.07683 4.60744 10.541
internal_count=869 388 481 453 420 410 194 194 146 101 56 394 367 135 84 46 45 59 51 48 356 45 343 174 47 82 92 47 74 169
is_linear=0
shrinkage=0.1


Tree=12
num_leaves=31
num_cat=0
split_feature=1535 1928 366 1164 1487 1032 1637 1039 412 1928 1199 1480 806 1671 896 407 80 807 650 322 310 806 1164 1754 1236 1236 1039 1145 1816 1956
split_gain=41.0677 18.8639 12.9548 17.8927 20.7508 12.7632 11.5853 17.6552 10.9119 8.73291 13.5453 6.96062 8.81657 13.8395 5.29099 6.06421 3.2534 2.23205 4.41654 0.889735 1.13913 1.03959 0.173765 0.0884209 0.0705484 0.0453367 0.0309104 0.025549 0.0111823 0.00799204
threshold=1.0000000180025095e-35 1.0000000180025095e-35 1.0000000180025095e-35 1.0000000180025095e-35 1.0000000180025095e-35 1.0000000180025095e-35 1.0000000180025095e-35 1.0000000180025095e-35 1.0000000180025095e-35 1.0000000180025095e-35 1.0000000180025095e-35 1.0000000180025095e-35 1.0000000180025095e-35 1.0000000180025095e-35 1.0000000180025095e-35 1.0000000180025095e-35 1.0000000180025095e-35 1.0000000180025095e-35 1.0000000180025095e-35 1.0000000180025095e-35 1.0000000180025095e-35 1.0000000180025095e-35 1.0000000180025095e-35 1.0000000180025095e-35 1.0000000180025095e-35 1.0000000180025095e-35 1.0000000180025095e-35 1.0000000180025095e-35 1.0000000180025095e-35 1.0000000180025095e-35
decision_type=2 2 2 2 2 2 2 2 2 2 2 2 2 2 2 2 2 2 2 2 2 2 2 2 2 2 2 2 2 2
left_child=1 6 3 4 9 25 17 22 11 14 16 12 13 28 15 23 -11 18 -1 20 21 -19 -8 -2 -4 -5 -18 -6 -3 -10
right_child=2 8 24 5 27 -7 7 -9 29 10 -12 -13 -14 -15 -16 -17 26 19 -20 -21 -22 -23 -24 -25 -26 -27 -28 -29 -30 -31
leaf_value=-0.14082418397685009 -0.01262721479703402 0.12748020591023543 0.13382512526250731 0.10825704231439548 0.11907921414352085 -0.20537398480718988 0.14466604288235116 -0.12239568478174256 0.11660698097720124 -0.014065917012375893 -0.15536074331217922 -0.14378734601852911 -0.11985784050906743 -0.070958181145182361 -0.16827393229988902 -0.1469368439261127 0.11446434572276187 -0.16178798469824288 -0.053960395255249788 -0.11274642132716468 -0.11458742394278604 -0.13022836262760693 0.10723666856822267 -0.031812907524817663 0.15578224805090515 0.12669412128162066 0.1302128596534633 0.106988937127933 0.11941875961018084 0.10779367444949264
leaf_weight=11.045466609299183 4.8102984726429003 3.2908030897378975 3.0173801332712165 12.490319173783059 3.7493219599127761 1.4106710478663451 2.1290228962898237 6.9139355011284351 1.4429193064570416 2.6805067360401136 3.8366527557373047 6.1327271834015837 6.499949410557746 7.8377997949719429 9.0581144690513629 6.5587067157030097 2.4324483275413513 19.742488071322441 12.452154994010925 22.283470295369625 17.279172535985708 22.145347721874714 2.9714330807328224 4.7983159124851227 2.8411611467599869 1.4931655973196036 2.5558308735489845 3.2741811275482178 3.6064085364341736 3.5860590711236
leaf_count=17 21 22 28 199 32 4 12 12 13 16 5 8 10 20 10 15 33 19 35 32 26 25 50 20 13 10 16 59 29 58
internal_value=-0.0637158 -0.0925918 0.00262908 -0.0114203 -0.0440441 0.0813052 -0.111295 -0.0182774 -0.0250656 -0.074158 -0.00195893 -0.0499439 -0.0228416 0.0199545 -0.107088 -0.0728077 0.0747872 -0.121944 -0.0947922 -0.129777 -0.136191 -0.145103 0.12286 -0.0222081 0.144473 0.110226 0.122533 0.113443 0.123265 0.110322
internal_weight=214.366 149.359 65.0071 59.1485 43.7544 15.3942 116.962 12.0144 32.3967 36.7309 11.5054 27.3677 21.235 14.735 25.2254 16.1673 7.66879 104.948 23.4976 81.4505 59.167 41.8878 5.10046 9.60861 5.85854 13.9835 4.98828 7.0235 6.89721 5.02898
internal_count=869 388 481 440 227 213 228 74 160 136 70 89 81 71 66 56 65 154 52 102 70 44 62 41 41 209 49 91 51 71
is_linear=0
shrinkage=0.1


Tree=13
num_leaves=31
num_cat=0
split_feature=819 1928 1603 980 80 1476 1855 961 794 1573 1357 1152 787 656 412 1991 1160 806 378 1039 1160 31 1120 314 699 1097 448 1236 1152 961
split_gain=28.2993 23.3815 16.7584 15.3543 10.7291 9.87335 16.4028 9.85814 6.47337 6.38911 11.5691 6.43119 10.6607 4.86874 4.06709 6.26384 3.35692 3.12465 4.50745 8.96762 2.04077 0.167191 0.0385687 0.0344719 0.0267461 0.018744 0.0128962 0.00702769 0.00446272 0.00406208
threshold=1.0000000180025095e-35 1.0000000180025095e-35 1.0000000180025095e-35 1.0000000180025095e-35 1.0000000180025095e-35 1.0000000180025095e-35 1.0000000180025095e-35 1.0000000180025095e-35 1.0000000180025095e-35 1.0000000180025095e-35 1.0000000180025095e-35 1.0000000180025095e-35 1.0000000180025095e-35 1.0000000180025095e-35 1.0000000180025095e-35 1.0000000180025095e-35 1.0000000180025095e-35 1.0000000180025095e-35 1.0000000180025095e-35 1.0000000180025095e-35 1.0000000180025095e-35 1.0000000180025095e-35 1.0000000180025095e-35 1.0000000180025095e-35 1.0000000180025095e-35 1.0000000180025095e-35 1.0000000180025095e-35 1.0000000180025095e-35 1.0000000180025095e-35 1.0000000180025095e-35
decision_type=2 2 2 2 2 2 2 2 2 2 2 2 2 2 2 2 2 2 2 2 2 2 2 2 2 2 2 2 2 2
left_child=1 3 25 5 -5 13 -7 8 9 10 11 -3 23 14 16 -16 17 18 -1 -20 -8 -19 29 -13 -12 -2 -9 -27 -26 -6
right_child=2 7 -4 4 22 6 20 26 -10 -11 24 12 -14 -15 15 -17 -18 21 19 -21 -22 -23 -24 -25 28 27 -28 -29 -30 -31
leaf_value=-0.13048074963881778 0.11601350934698258 -0.092614330833566294 -0.27133607380180508 -0.13319254857339793 0.11678032227880016 -0.093318121574748739 0.15488348930833648 0.10935147237022952 -0.14098066281216881 -0.11659051960618892 0.12842974071419841 0.1191045119804106 -0.051748499137240916 -0.053986393579043383 0.0048070780506690178 -0.1301123945713166 -0.16383674499926176 -0.13989128289815334 0.013845149811805761 -0.13559434966635456 0.043583645025236095 -0.12674390881806483 0.1296493892190699 0.13524584076537835 0.11885763577599236 0.10626036395004296 0.11889969867920998 0.114006540865804 0.11248312743585889 0.10933485342918421
leaf_weight=15.235207855701448 3.3761894628405527 9.2373869605362451 1.2672485485672957 2.3642877377569667 1.4491865523159504 15.013732850551607 3.0962828211486331 3.5092750601470462 4.3283029571175566 4.968497071415185 2.4314509630203238 2.8992289267480365 9.0559936463832855 14.073913924396036 6.5307764075696451 7.2733853459358215 17.519473168998957 21.027162551879883 8.7569411396980303 7.4164180159568778 3.5206312201917171 17.911658883094788 2.6578339524567127 2.4337254539132118 2.0115085765719414 8.2806289568543416 2.369764044880867 1.3641676716506488 2.4190201200544834 1.4822452887892723
leaf_count=17 39 38 4 5 14 26 17 56 7 10 16 26 25 41 39 8 24 22 46 9 38 21 24 20 18 162 26 16 28 27
internal_value=-0.0599329 -0.0700882 0.0758148 -0.0897009 0.0453858 -0.097522 -0.0355074 -0.00766928 -0.0255302 -0.0114368 0.00569945 -0.0274984 0.0143046 -0.109111 -0.116742 -0.0662817 -0.12467 -0.114915 -0.0914491 -0.0546815 0.0956647 -0.133844 0.120925 0.126471 0.120002 0.109601 0.1132 0.107356 0.115377 0.113016
internal_weight=205.282 190.993 14.2882 145.329 7.95355 137.376 21.6306 45.6642 39.7851 35.4568 30.4883 23.6263 14.3889 115.745 101.671 13.8042 87.8669 70.3474 31.4086 16.1734 6.61691 38.9388 5.58927 5.33295 6.86198 13.021 5.87904 9.6448 4.43053 2.93143
internal_count=869 648 221 378 70 308 81 270 188 181 171 109 71 227 186 47 139 115 72 55 55 43 65 46 62 217 82 178 46 41
is_linear=0
shrinkage=0.1


Tree=14
num_leaves=31
num_cat=0
split_feature=1535 1678 1637 1039 366 1164 1487 1980 412 1199 1956 1139 1171 1928 656 807 1160 1039 1199 1164 1017 1145 1754 1480 875 800 1783 1733 314 310
split_gain=31.3359 17.041 15.6822 16.7213 10.679 14.0351 16.8427 9.35477 7.03226 14.7169 6.57213 8.1115 4.37816 4.27891 3.15302 1.9134 1.76604 0.405194 0.246263 0.127935 0.0635617 0.01943 0.0123912 0.00423052 0.00456192 0.00348892 0.000479573 0.000365916 0.000290267 0.00028056
threshold=1.0000000180025095e-35 1.0000000180025095e-35 1.0000000180025095e-35 1.0000000180025095e-35 1.0000000180025095e-35 1.0000000180025095e-35 1.0000000180025095e-35 1.0000000180025095e-35 1.0000000180025095e-35 1.0000000180025095e-35 1.0000000180025095e-35 1.0000000180025095e-35 1.0000000180025095e-35 1.0000000180025095e-35 1.0000000180025095e-35 1.0000000180025095e-35 1.0000000180025095e-35 1.0000000180025095e-35 1.0000000180025095e-35 1.0000000180025095e-35 1.0000000180025095e-35 1.0000000180025095e-35 1.0000000180025095e-35 1.0000000180025095e-35 1.0000000180025095e-35 1.0000000180025095e-35 1.0000000180025095e-35 1.0000000180025095e-35 1.0000000180025095e-35 1.0000000180025095e-35
decision_type=2 2 2 2 2 2 2 2 2 2 2 2 2 2 2 2 2 2 2 2 2 2 2 2 2 2 2 2 2 2
left_child=1 2 8 19 5 6 10 23 14 22 13 20 -3 16 15 -1 -2 18 -17 -4 -12 -8 -10 24 -7 -25 -26 28 -21 -23
right_child=4 12 3 -5 -6 7 21 -9 9 -11 11 -13 -14 -15 -16 17 -18 -19 -20 27 -22 29 -24 25 26 -27 -28 -29 -30 -31
leaf_value=-0.089376947092295114 -0.080514515808924603 -0.017838843856869284 0.13325214417612935 -0.10571796073697984 0.13728830395014327 0.11151847066370818 0.117094645864047 -0.158109460703968 0.11157980660050693 -0.12579488719142617 0.13260514350490174 -0.13413625769708312 0.13936832698717347 -0.025763268285471104 -0.068901407627848923 -0.13517496846230329 -0.13884984663271202 -0.11357453851078883 -0.12047708199152518 0.10461600322448926 0.10604484666538599 0.10686997273912902 0.12245191760632067 0.11419279415562911 0.10497232136052377 0.10763285959629641 0.10662171995374246 0.10746043742798346 0.10671286729798901 0.10487952985238432
leaf_weight=18.430705614387989 10.588880300521851 3.2677990198135367 2.9745980203151685 6.4265603385865688 5.4330862164497367 1.7096122428774805 3.4521050453186026 1.4836982339620597 2.5451411828398687 6.0104377567768097 2.0635504387319079 1.8884396925568578 3.8689211905002594 8.7586375623941439 15.225409075617788 34.056447580456734 10.177832409739494 20.352097511291504 17.135153159499168 1.9026967436075211 1.5993253178894522 1.4976541437208652 1.7824593745172022 1.7223996818065652 3.6838673576712582 1.5317981950938702 3.3803714625537395 1.1344989016652105 1.0109337493777275 1.3433362729847431
leaf_count=36 28 22 20 14 41 19 32 2 35 16 14 12 22 36 32 39 13 33 22 46 33 28 14 18 85 28 61 19 18 31
internal_value=-0.0564479 -0.0830339 -0.0913564 0.0108418 0.00355376 -0.00968552 -0.0385863 0.0788017 -0.103253 -0.0245531 -0.0656126 0.0342134 0.0673855 -0.0843817 -0.110987 -0.118108 -0.109105 -0.12551 -0.130255 0.117507 0.121008 0.112054 0.116058 0.108025 0.106883 0.111105 0.105762 0.105937 0.105344 0.105929
internal_weight=196.438 136.124 128.987 13.4493 60.3146 54.8815 41.3698 13.5117 115.538 10.338 35.0767 5.55132 7.13672 29.5254 105.2 89.9744 20.7667 71.5437 51.1916 7.02273 3.66288 6.2931 4.3276 12.028 8.77385 3.2542 7.06424 4.04813 2.91363 2.84099
internal_count=869 388 344 117 481 440 227 213 227 65 136 59 44 77 162 130 41 94 61 103 47 91 49 211 165 46 146 83 64 59
is_linear=0
shrinkage=0.1


Tree=15
num_leaves=31
num_cat=0
split_feature=1928 980 794 314 1077 191 352 1032 1855 561 961 1387 1917 807 352 745 1970 650 845 147 1480 314 935 1164 1671 1964 1145 1535 1980 1164
split_gain=29.4644 16.7085 9.40071 10.6661 10.2387 9.43137 9.16605 8.70451 8.6084 26.5119 10.2073 9.16581 6.30804 5.71215 9.32658 4.09332 2.9242 2.90962 2.46883 2.38967 1.03637 0.868861 0.560711 0.10048 0.0690082 0.0665968 0.0238665 0.0280252 0.0132022 0.0128732
threshold=1.0000000180025095e-35 1.0000000180025095e-35 1.0000000180025095e-35 1.0000000180025095e-35 1.0000000180025095e-35 1.0000000180025095e-35 1.0000000180025095e-35 1.0000000180025095e-35 1.0000000180025095e-35 1.0000000180025095e-35 1.0000000180025095e-35 1.0000000180025095e-35 1.0000000180025095e-35 1.0000000180025095e-35 1.0000000180025095e-35 1.0000000180025095e-35 1.0000000180025095e-35 1.0000000180025095e-35 1.0000000180025095e-35 1.0000000180025095e-35 1.0000000180025095e-35 1.0000000180025095e-35 1.0000000180025095e-35 1.0000000180025095e-35 1.0000000180025095e-35 1.0000000180025095e-35 1.0000000180025095e-35 1.0000000180025095e-35 1.0000000180025095e-35 1.0000000180025095e-35
decision_type=2 2 2 2 2 2 2 2 2 2 2 2 2 2 2 2 2 2 2 2 2 2 2 2 2 2 2 2 2 2
left_child=1 8 3 6 5 12 15 18 13 10 20 28 -5 14 17 23 22 -1 29 -18 -10 -13 25 26 -7 -15 27 -2 -12 -3
right_child=2 7 -4 4 -6 24 -8 -9 9 -11 11 21 -14 16 -16 -17 19 -19 -20 -21 -22 -23 -24 -25 -26 -27 -28 -29 -30 -31
leaf_value=-0.051843740444824149 0.12505409091023989 0.11582961513503226 -0.12216581633845675 0.039911688600983181 -0.17069834425963615 0.11485045233030798 -0.045160498735675049 -0.14143759729065669 -0.097629116164097113 0.14822476387794886 0.1063676301320584 -0.045772600407291121 -0.11317059060419075 -0.12923759962908676 -0.13240491369368712 -0.047324223849335316 -0.06072990605251441 0.036309821445360289 -0.026270891139066506 -0.12157345111527047 -0.13786908944270437 -0.12576758576054847 -0.147700399670017 0.10632757632052747 0.1394434387496287 -0.12036021485460645 0.13072467727367371 0.1133573501097741 0.11867684833855821 0.10693662035479863
leaf_weight=8.4265475831925851 4.2727995663881391 2.5298904292285425 4.8575741648674002 4.9158558659255522 4.1189501658081999 2.2410851195454589 5.5006613396108142 2.1170717477798453 15.019525729119778 5.8066121004521838 3.3319148011505586 2.9125123657286167 5.9497719407081604 17.266443192958832 11.394443176686764 1.6841471530497063 13.11632377654314 6.7381410561501989 1.6328992769122121 12.710819661617279 11.152952507138252 2.5435053929686546 15.822380155324934 6.6118335276842108 2.3243559785187244 16.550766110420227 2.432451043277978 3.9347861558198929 1.1798879243433473 4.5648315921425819
leaf_count=26 31 31 12 39 8 24 23 2 30 35 69 34 8 21 14 9 30 30 16 17 16 8 20 137 16 23 20 52 10 84
internal_value=-0.0578673 -0.0792317 0.00984957 0.0244284 -0.0306256 0.00676342 0.0684731 0.040467 -0.088248 -0.0501128 -0.0819794 0.00413626 -0.0439127 -0.103927 -0.0640414 0.101482 -0.117964 -0.0126744 0.0845919 -0.090674 -0.114777 -0.0830649 -0.132163 0.116009 0.127371 -0.124893 0.122025 0.119447 0.109587 0.110108
internal_weight=203.662 154.817 48.8443 43.9867 19.55 15.4311 24.4367 10.8447 143.973 41.9469 36.1403 9.96782 10.8656 102.026 26.5591 18.936 75.4667 15.1647 8.72762 25.8271 26.1725 5.45602 49.6396 17.2519 4.56544 33.8172 10.64 8.20759 4.5118 7.09472
internal_count=895 516 379 367 95 87 272 133 383 202 167 121 47 181 70 249 111 56 131 47 46 42 64 240 40 44 103 83 79 115
is_linear=0
shrinkage=0.1


Tree=16
num_leaves=31
num_cat=0
split_feature=835 378 489 1385 875 352 1480 289 1917 744 1956 1745 216 661 1114 1573 1199 1199 1164 193 1617 927 1956 1939 1917 1480 1671 158 718 1480
split_gain=19.419 17.5416 17.9906 18.8076 17.0473 18.0172 9.96171 8.73427 7.55233 7.25466 11.3685 6.848 5.89363 5.1448 2.3967 2.12059 2.10203 0.555532 0.409981 0.274035 0.258806 0.171452 0.0838088 0.0327735 0.0362355 0.0202005 0.0107624 0.00466305 0.00199559 0.00141032
threshold=1.0000000180025095e-35 1.0000000180025095e-35 1.0000000180025095e-35 1.0000000180025095e-35 1.0000000180025095e-35 1.0000000180025095e-35 1.0000000180025095e-35 1.0000000180025095e-35 1.0000000180025095e-35 1.0000000180025095e-35 1.0000000180025095e-35 1.0000000180025095e-35 1.0000000180025095e-35 1.0000000180025095e-35 1.0000000180025095e-35 1.0000000180025095e-35 1.0000000180025095e-35 1.0000000180025095e-35 1.0000000180025095e-35 1.0000000180025095e-35 1.0000000180025095e-35 1.0000000180025095e-35 1.0000000180025095e-35 1.0000000180025095e-35 1.0000000180025095e-35 1.0000000180025095e-35 1.0000000180025095e-35 1.0000000180025095e-35 1.0000000180025095e-35 1.0000000180025095e-35
decision_type=2 2 2 2 2 2 2 2 2 2 2 2 2 2 2 2 2 2 2 2 2 2 2 2 2 2 2 2 2 2
left_child=1 -1 3 4 8 7 17 9 16 11 27 12 13 15 -5 18 -3 -7 19 21 -2 22 23 24 25 -6 -26 -11 -22 -20
right_child=20 2 -4 14 5 6 -8 -9 -10 10 -12 -13 -14 -15 -16 -17 -18 -19 29 -21 28 -23 -24 -25 26 -27 -28 -29 -30 -31
leaf_value=-0.10949597999915978 -0.10319291077814048 0.044922704742092173 -0.13124297549932259 -0.061856082920303625 0.11122036836575799 0.059262849502822679 -0.12537178753684614 -0.10586857424894691 -0.12937027523874667 0.11443621589288551 -0.12415758726507892 -0.031740856432976201 -0.047772259226370808 -0.041288374273447948 -0.13334564182922123 0.0267588345878924 -0.057550978978652759 0.0021753672655020948 0.10503080019378393 0.16001204366734911 -0.1191333837022967 0.15030429783936766 0.1087255385841574 0.13721120850249888 0.12542212748291057 0.12399550757991361 0.13290170992822056 0.10728559874844888 -0.12079478132232091 0.10817497088256062
leaf_weight=28.023162364959717 13.49710384197533 4.4251835756003857 13.402028203010557 8.8920833505690098 2.4196189269423574 3.6364214159548292 9.6049910634756088 3.025348149240016 10.755636908113956 2.1835595685988647 4.5127946138381958 4.5318230185657731 2.5957770608365527 2.1735024377703658 9.9224079251289368 2.4138657953590146 3.6552527323365211 3.2087659649550915 7.207050943747161 2.8152762949466696 14.474866390228271 2.7049423307180396 3.2339354399591675 2.3877949863672248 4.408647857606411 2.5340086817741394 3.4131366014480591 1.5660380460321905 14.444224715232849 1.7786898892372844
leaf_count=40 34 36 17 35 37 33 16 7 18 29 19 20 26 6 12 38 9 14 170 17 21 13 57 16 34 19 22 29 20 31
internal_value=-0.0548235 -0.0380725 -0.021854 -0.00852718 0.0102541 0.0323142 -0.0596778 0.0593826 -0.0744864 0.0688368 -0.0172355 0.0847757 0.0979482 0.108038 -0.0995583 0.117228 -0.00143212 0.0325024 0.123865 0.130707 -0.114627 0.126797 0.123341 0.126458 0.124448 0.117755 0.128686 0.11145 -0.119963 0.105653
internal_weight=193.848 151.432 123.409 110.007 91.1921 72.356 16.4502 55.9058 18.8361 52.8805 8.26239 44.6181 40.0862 37.4905 18.8145 35.317 8.08044 6.84519 32.9031 23.9174 42.4162 21.1021 18.3971 15.1632 12.7754 4.95363 7.82178 3.7496 28.9191 8.98574
internal_count=895 820 780 763 716 653 63 590 63 583 77 506 486 460 47 454 45 47 416 215 75 198 185 128 112 56 56 58 41 201
is_linear=0
shrinkage=0.1


Tree=17
num_leaves=31
num_cat=0
